tree
version=v4
num_class=1
num_tree_per_iteration=1
label_index=0
max_feature_idx=19
objective=binary sigmoid:1
feature_names=From_Bank To_Bank Amount_Received Receiving_Currency Amount_Paid Payment_Currency Payment_Format Hour Day_of_Week Is_Currency_Conversion sender_tx_count_24h sender_amount_sum_24h receiver_tx_count_24h receiver_amount_sum_24h sender_tx_count sender_avg_amount receiver_tx_count receiver_avg_amount out_degree in_degree
feature_infos=[0:23933] [0:10050] [9.9999999999999995e-07:906270078070.88] [0:14] [9.9999999999999995e-07:631499996336.21997] [0:14] [0:6] [0:23] [1:7] [0:1] [1:153146] [3.9999999999999998e-06:1537771709134.1799] [1:1844] [1.9999999999999999e-06:906270094430.90002] [1:861548] [2.0000000000000003e-06:165569867437.785] [1:5477] [2.0000000000000003e-06:72146200474.515991] [1:55450] [1:2285]
tree_sizes=3384 3422 3413 3428 3427 3431 3426 3423 3444 3446 3455 3452 3472 3479 3478 3467 3459 3470 3471 3476 3477 3474 3484 3472 3476 3473 3470 3476 3468 3475 3481 3474 3465 3493 3476 3461 3480 3486 3489 3478 3467 3480 3468 3473 3469 3485 3467 3489 3497 3481 3493 3483 3492 3486 3481 3477 3498 3493 3483 3495 3495 3485 3492 3507 3485 3488 3500 3463 3491 3498 3491 3479 3483 3509 3526 3494 3534 3490 3528 3500 3536 3527 3502 3538 3523 3522 3533 3523 3525 3510 3530 3523 3513 3524 3515 3517 3505 3532 3537 3537 3501 3533 3497 3537 3556 3516 3532 3521 3521 3538 3539 3498 3529 3522 3509 3497 3534 3542 3504 3511 3541 3482 3535 3529 3549 3509 3513 3524 3506 3533 3529 3529 3508 3548 3471 3537 3535 3494 3550 3518 3530 3471 3544 3514 3551 3460 3513 3514 3528 3559 3473 3506 3484 3468 3511 3513 3532 3505 3555 3502 3468 3492 3503 3456 3506 3550 3485 3442 3483 3512 3497 3502 3460 3441 3468 3507 3489 3504 3507 3485 3461 3482 3496 3522 3478 3475 3449 3487 3527 3497 3481 3526 3476 3460 3490 3474 3478 3473 3473 3499 3457 3498 3508 3526 3462 3485 3529 3468 3463 3504 3487 3455 3475 3471 3545 3516 3454 3460 3470 3498 3434 3439 3439 3498 3485 3499 3446 3547 3488 3417 3428 3475 3459 3487 3435 3546 3475 3468 3478 3529 3482 3447 3477 3494 3519 3540 3497 3534 3468 3503 3504 3535 3449 3505 3534 3482 3452 3435 3446 3433 3462 3420 3438 3476 3490 3435 3501 3514 3496 3523 3541 3437 3444 3493 3454 3457 3458 3499 3453 3451 3445 3455 3453 3432 3510 3424 3470 3481 3532 3496 3459 3442 3503 3409 3427 3434 3527 3536 3462 3500

Tree=0
num_leaves=31
num_cat=0
split_feature=6 18 2 9 14 16 12 19 14 18 12 18 11 0 17 14 14 19 6 15 1 14 15 9 4 14 18 0 0 9
split_gain=3.53436e+06 633594 212738 100708 57653.4 26855.5 22651.4 62579.6 54320 19236.9 15115.7 13545.9 12396.6 11490.9 10745.9 10063.4 7958 7861.02 5211.81 5064.96 5006.88 7065.19 4802.35 4231.61 3275.44 3223.27 3469.57 2869.18 13104.2 2794.57
threshold=1.0000000180025095e-35 1410.0000000000002 488.89000000000004 1.0000000180025095e-35 26.500000000000004 17.500000000000004 3.5000000000000004 3.5000000000000004 27.500000000000004 1.5000000000000002 22.500000000000004 10.500000000000002 0.45570350000000004 17317.500000000004 3616.3672619047625 8.5000000000000018 1.5000000000000002 7.5000000000000009 1.5000000000000002 774.50090132827324 4662.5000000000009 33.500000000000007 182203.6722953608 1.0000000180025095e-35 3737.2200000000007 18.500000000000004 2.5000000000000004 6125.5000000000009 15223.500000000002 1.0000000180025095e-35
decision_type=2 2 2 2 2 2 2 2 2 2 2 2 2 2 2 2 2 2 2 2 2 2 2 2 2 2 2 2 2 2
left_child=2 12 4 6 9 29 13 8 -8 16 20 14 15 27 -10 18 -1 -7 -2 -18 24 -22 -12 25 -9 -11 -27 -4 -29 -6
right_child=1 -3 3 -5 5 17 7 10 11 23 22 -13 -14 -15 -16 -17 19 -19 -20 -21 21 -23 -24 -25 -26 26 -28 28 -30 -31
leaf_value=-2.1818070976780888 -2.2494806008887744 -2.4314540838708183 -1.9732397801692219 -3.0489097614035172 -2.0252929151677557 -2.9743080014349683 -2.0643346723322735 -2.0636599333901575 -2.3751120742442522 -2.0550086776394121 -2.5070255776739718 -2.1468527222114533 -3.0421406986741495 -3.0489097578154207 -2.7990401674734326 -2.989895900031009 -3.0402926166865072 -2.2244762128213487 -3.0489097612920086 -2.1641669914893198 -2.0803307131852198 -2.5251809962278187 -2.0932771059205852 -3.0489097635089206 -1.993025311796516 -2.8621416959306352 -2.169833916271164 -2.9949285715162302 -2.0258773769859904 -3.0489097640283318
leaf_weight=50.77898383140564 110.14534610882401 5469.6943893432617 11120.621622700244 245.24621248245239 96.781570121645927 871.88517819344997 855.77441927045584 2157.2624967247248 199.00784933194518 457.09633354470134 212.36666554585099 132.01033585518599 20105.873073544353 25.154606461524963 600.720976755023 152.61015226319432 116.1197522431612 36.413344610482454 25.018635343760252 19.227681800723076 538.26694998890162 106.99821886047721 104.71381387487054 12.192052282392977 6861.4695640094578 26.789324633777142 55.778237260878086 37.075903415679932 590.80274868011475 7.1611310355365267
leaf_count=284 757 56510 18072 5411 253 18001 2872 7212 1843 1453 2499 650 441021 555 10402 3196 2543 233 552 101 1970 1296 409 269 13730 496 299 780 1551 158
internal_value=-2.49732 -2.90931 -2.08008 -2.04093 -2.6121 -2.85713 -2.03043 -2.07949 -2.35194 -2.27601 -2.03069 -2.61609 -3.03748 -1.9814 -2.69355 -2.71163 -2.71557 -2.94425 -2.39745 -2.91583 -2.01955 -2.1541 -2.37039 -2.12775 -2.00992 -2.10694 -2.39446 -1.97911 -2.0831 -2.09581
internal_weight=51401.1 25863.3 25537.7 23787.5 1750.22 1012.24 23542.2 11768.6 1787.51 737.982 9981.08 931.739 20393.6 11773.7 799.729 287.774 186.126 908.299 135.164 135.347 9664 645.265 317.08 551.856 9018.73 539.664 82.5676 11748.5 627.879 103.943
internal_count=595378 502036 93342 69252 24090 18645 63841 42883 15767 5445 27116 12895 445526 20958 12245 4505 2928 18234 1309 2644 24208 3266 2908 2517 20942 2248 795 20403 2331 411
is_linear=0
shrinkage=1


Tree=1
num_leaves=31
num_cat=0
split_feature=6 18 2 9 17 14 0 14 4 14 16 19 13 14 18 16 12 13 16 0 15 6 0 19 14 8 8 13 4 15
split_gain=726399 324494 33099.4 22743.1 9543.84 6249.02 5443.83 5330.27 4187.35 5871.66 5273.1 6152.49 3699.08 3272.93 7235.48 2067.76 2012.94 1686.49 1424.61 1373.77 1317.23 1207.08 1183.82 1167.7 931.069 8352.38 3159.05 929.008 903.834 895.737
threshold=1.0000000180025095e-35 1410.0000000000002 124.13500000000001 1.0000000180025095e-35 0.60433495161290329 9.5000000000000018 17317.500000000004 23.500000000000004 1111.8900000000001 41.500000000000007 21.500000000000004 4.5000000000000009 94451.830000000031 33.500000000000007 3.5000000000000004 9.5000000000000018 22.500000000000004 0.06550750000000001 19.500000000000004 6125.5000000000009 16766.785202845105 2.5000000000000004 6125.5000000000009 32.500000000000007 8.5000000000000018 4.5000000000000009 6.5000000000000009 7492.3550000000014 4603.6550000000007 21004.337767857145
decision_type=2 2 2 2 2 2 2 2 2 2 2 2 2 2 2 2 2 2 2 2 2 2 2 2 2 2 2 2 2 2
left_child=2 4 7 6 5 17 8 19 9 20 -11 -12 28 23 -15 -7 24 -2 -9 -1 22 -3 -4 -14 25 27 -27 -6 29 -10
right_child=1 21 3 -5 16 15 -8 18 12 10 11 -13 13 14 -16 -17 -18 -19 -20 -21 -22 -23 -24 -25 -26 26 -28 -29 -30 -31
leaf_value=0.33044333389798441 -0.010850709994888666 0.28498970239160137 0.36456295510203435 -0.052410044656610644 0.37502943020254476 0.63641142394390915 -0.053691946229455306 0.27326571864928034 0.37880198916230629 0.3958389904868696 0.044829327600502018 0.35219029118895917 0.39185073500648238 0.15255395866710819 0.35865499488818742 -0.0085676313578126936 0.34697286305884517 0.44535942552218999 -0.037728835891047967 0.058463982159490717 0.41429424923306651 0.33138380151818125 0.24885914737120537 0.292461771178676 -0.050512450758569298 -0.033816652481909813 0.77911204005492629 0.88165223213425947 0.40745866448219692 0.40701434735220021
leaf_weight=183.9271055161953 22.859090462327003 1739.6188545227051 1743.0925288274884 293.04871034622192 13.962514728307722 13.073975451290606 69.28453478962183 39.545067183673382 6738.6258286759257 358.30330345779657 435.5158719420433 260.02225988358259 9190.2776450440288 475.8557208776474 4051.5330352410674 250.90880184620619 32.534294910728931 178.0196076631546 535.15548298507929 62.105381526052952 1318.0395196080208 7224.0604934692383 253.17912308871746 305.34341153502464 17081.422413513064 2045.6827220916748 12.020861588418482 25.712317705154419 25236.503660939634 4830.0935575962067
leaf_count=741 289 12203 4406 6695 75 123 1295 245 10375 486 6533 1050 9727 3932 9125 5454 438 615 11165 890 1464 44307 1757 1857 392179 46177 41 135 17205 4394
internal_value=0.278083 0.0730266 0.382249 0.386905 -0.0405687 0.183292 0.389235 0.0670424 0.389791 0.342813 0.240009 0.159734 0.393828 0.371975 0.336993 0.0233755 -0.0459855 0.393445 -0.0163293 0.261788 0.375502 0.32238 0.349889 0.388655 -0.0466521 -0.0152127 -0.0290676 0.70336 0.402154 0.390581
internal_weight=85019.3 28639.9 56379.5 55558.7 19676.2 464.861 55265.7 820.733 55196.4 4368.15 1053.84 695.538 50828.2 14023 4527.39 263.983 19211.3 200.879 574.701 246.032 3314.31 8963.68 1996.27 9495.62 19178.8 2097.38 2057.7 39.6748 36805.2 11568.7
internal_count=595378 502036 93342 80301 445526 6481 73606 13041 72311 15696 8069 7583 56615 24641 13057 5577 439045 904 11410 1631 7627 56510 6163 11584 438607 46428 46218 210 31974 14769
is_linear=0
shrinkage=0.05


Tree=2
num_leaves=31
num_cat=0
split_feature=6 18 2 9 6 14 0 14 2 14 16 19 16 13 19 16 12 14 19 12 15 8 0 10 11 6 14 16 18 8
split_gain=379730 216757 16266.9 12463.7 8004.21 5077.9 3051.58 2729.52 2121.4 3500.49 3730.83 5304.83 1904.71 1565.21 2168.61 3840.89 1082.79 925.169 825.388 785.61 697.153 713.992 694.861 660.329 1297.03 3645.08 1343.74 647.06 509.098 501.283
threshold=1.0000000180025095e-35 1410.0000000000002 97.045000000000016 1.0000000180025095e-35 1.5000000000000002 7.5000000000000009 17317.500000000004 19.500000000000004 1486.8150000000003 33.500000000000007 27.500000000000004 4.5000000000000009 12.500000000000002 134573.57500000004 4.5000000000000009 35.500000000000007 22.500000000000004 18.500000000000004 2.5000000000000004 17.500000000000004 4615.5965199931661 5.5000000000000009 6018.5000000000009 1.5000000000000002 7070.9800000000005 3.5000000000000004 8.5000000000000018 21.500000000000004 1.5000000000000002 4.5000000000000009
decision_type=2 2 2 2 2 2 2 2 2 2 2 2 2 2 2 2 2 2 2 2 2 2 2 2 2 2 2 2 2 2
left_child=2 4 7 6 5 18 8 22 9 20 -11 -12 17 -10 15 -15 23 -7 29 -16 21 -4 -1 24 -6 26 -26 -9 -18 -2
right_child=1 -3 3 -5 16 12 -8 27 13 10 11 -13 -14 14 19 -17 28 -19 -20 -21 -22 -23 -24 -25 25 -27 -28 -29 -30 -31
leaf_value=0.24959472034344632 0.36547094752367948 0.2338921040446659 0.27090482258966275 -0.052298530726510487 -0.045661181857348396 0.042759206347692771 -0.05348323174803718 0.16294662546612276 0.28452415661180525 0.26929635119547346 0.035360829353495445 0.25538019023040548 -0.024017444721850731 0.2677035874785515 0.28574967334698143 0.18190241772430302 0.082428887897096528 0.47590556400804895 0.30679629181654239 0.22310311303228181 0.28820646453164028 0.21427419693510089 0.029262027244524293 -0.050292005922838091 0.33112981932330043 -0.052307715383270392 -0.0026366630100325265 -0.044089423588985627 0.47411827345071855 0.027261545340837513
leaf_weight=143.02256467938423 14.185276079922913 11647.35567855835 1792.2554047480226 288.69493687152863 1055.3169013038278 20.815477546304464 69.835623294115067 41.057436350733042 49484.146428413689 949.9128090441227 609.66146146506071 497.53878479450941 423.24783413484693 4867.3794569969177 8714.0005880966783 1781.7940100133419 22.10539572685957 30.234178323298693 260.9537949860096 530.93202247470617 3187.8146727085114 807.28576946258545 47.723283901810646 16655.895938679576 119.58992275223136 279.69656852632761 40.323637779802084 466.95508455857635 13.279288277029989 48.126190699636936
leaf_count=408 13 56510 2909 6894 24838 348 1369 331 32181 1725 7999 1424 9560 5947 6050 7635 316 221 697 1968 2789 3006 668 400053 1293 6636 933 10039 91 527
internal_value=0.212219 0.0640861 0.273305 0.275585 -0.0400971 0.114937 0.276877 0.0331968 0.277192 0.252622 0.1966 0.13423 0.0107809 0.28014 0.266489 0.244711 -0.0468962 0.29929 0.267755 0.282152 0.272536 0.253318 0.194469 -0.0474349 -0.015602 0.0565573 0.246968 -0.0273568 0.229423 0.104255
internal_weight=104911 30631.1 74280 73581.3 18983.8 797.563 73292.6 698.758 73222.7 7844.47 2057.11 1107.2 474.297 65378.3 15894.1 6649.17 18186.2 51.0497 323.265 9244.93 5787.36 2599.54 190.746 18150.8 1494.93 439.61 159.914 508.013 35.3847 62.3115
internal_count=595378 502036 93342 81896 445526 11366 75002 11446 73633 19852 11148 9423 10129 53781 21600 13582 434160 569 1237 8018 8704 5915 1076 433753 33700 8862 2226 10370 407 540
is_linear=0
shrinkage=0.05


Tree=3
num_leaves=31
num_cat=0
split_feature=6 18 9 4 6 14 0 4 14 18 16 16 14 1 14 18 18 12 18 14 10 11 6 17 15 13 0 7 16 6
split_gain=241928 159658 10385.7 8221.43 7047.87 3431.25 2058.55 1565.85 2139.44 1817.77 1775.54 1390.46 1379.58 1073.63 1639.92 2086.18 911.756 860.138 821.605 1425.9 655.431 1160.04 2619.56 748.116 645.426 549.151 517.721 442.444 425.899 404.503
threshold=1.0000000180025095e-35 1410.0000000000002 1.0000000180025095e-35 77.265000000000015 1.5000000000000002 9.5000000000000018 17317.500000000004 745.8900000000001 53.500000000000007 8.5000000000000018 18.500000000000004 13.500000000000002 19.500000000000004 624.50000000000011 77.500000000000014 4.5000000000000009 5.5000000000000009 22.500000000000004 4.5000000000000009 16.500000000000004 1.5000000000000002 7070.9800000000005 3.5000000000000004 14677.607576923079 0.075200693154996071 0.06550750000000001 6018.5000000000009 1.0000000180025095e-35 19.500000000000004 2.5000000000000004
decision_type=2 2 2 2 2 2 2 2 2 2 2 2 2 2 2 2 2 2 2 2 2 2 2 2 2 2 2 2 2 2
left_child=2 4 3 12 5 24 7 8 18 10 -10 25 26 -9 16 -16 -15 20 19 -5 21 -6 23 -23 -2 -7 -1 -26 -14 -3
right_child=1 29 -4 6 17 11 -8 13 9 -11 -12 -13 28 14 15 -17 -18 -19 -20 -21 -22 22 -24 -25 27 -27 -28 -29 -30 -31
leaf_value=0.20090241013572163 0.048606234453301984 0.16742574870875571 -0.052302885702458092 0.21550387349193653 -0.045292166910201596 -0.054036627213924243 -0.053288571692917702 0.22769863241981542 0.21786811125331385 0.22581367239520894 0.0074453059558376167 -0.027509853784067281 0.19036669945126183 0.21565494404668667 0.043094689165096275 0.19469279512127019 0.23491701611303803 0.17540253569309536 0.2624237031670571 0.13719605178168301 -0.050086152389170961 0.31515893375363752 -0.05219013350138945 0.11369163629838717 0.045116079348901772 0.29786980751728287 -0.024528227922409818 0.24855446713942247 -0.046739193267658963 0.18921271264802922
leaf_weight=110.90652112662792 56.053940813988447 2626.2109184265137 355.16163539886475 2493.0844073519111 1012.1796419173479 14.164480954408644 68.957728028297424 38428.796377900988 135.58885203301907 252.39297376573086 384.64670976996422 403.5411655344069 20.042044151574373 32815.176955103874 242.011500030756 3643.2173912525177 7558.5101639069617 43.532714158296585 567.94580864906311 758.09531790018082 15906.765773069113 72.919191539287567 266.63995302096009 125.18432015180588 29.178367383778095 51.009445793926716 33.061099469661713 317.97846278548241 344.1929693184793 11285.322273254395
leaf_count=240 384 12203 8604 3658 24838 242 1417 20344 139 988 5508 9391 69 29753 1459 5536 2856 407 453 4130 400053 512 6636 1714 273 343 480 733 7708 44307
internal_value=0.174708 0.0574283 0.217533 0.218624 -0.0396311 0.0990949 0.21979 0.220006 0.191586 0.115706 0.0622877 0.00709901 0.0181001 0.221584 0.216275 0.18525 0.219261 -0.0465719 0.206937 0.197244 -0.0471278 -0.0152657 0.05013 0.187849 0.206036 0.221389 0.149134 0.231456 -0.0336924 0.1851
internal_weight=120422 32210.7 88211.8 87856.6 18299.1 871.926 87348.4 87279.5 4591.75 772.629 520.236 468.715 508.203 82687.7 44258.9 3885.23 40373.7 17427.2 3819.13 3251.18 17383.7 1476.92 464.743 198.104 403.211 65.1739 143.968 347.157 364.235 13911.5
internal_count=595378 502036 93342 84738 445526 11366 76241 74824 14876 6635 5647 9976 8497 59948 39604 6995 32609 434160 8241 7788 433753 33700 8862 2226 1390 585 720 1006 7777 56510
is_linear=0
shrinkage=0.05


Tree=4
num_leaves=31
num_cat=0
split_feature=6 18 9 6 4 14 0 1 14 16 19 14 16 0 0 14 14 8 8 14 18 12 6 2 14 18 0 19 4 0
split_gain=171118 124119 7504.57 6323.69 5705.46 2507.49 1486.74 1276.06 3273.61 1649.8 1506.05 1142.52 1022.83 884.872 3560.58 1117.32 865.256 2316.92 1311.25 774.709 1605.85 719.135 679.801 977.117 544.48 880.048 486.253 432.863 423.046 378.951
threshold=1.0000000180025095e-35 1410.0000000000002 1.0000000180025095e-35 1.5000000000000002 77.265000000000015 7.5000000000000009 17317.500000000004 5342.5000000000009 33.500000000000007 17.500000000000004 7.5000000000000009 19.500000000000004 13.500000000000002 6125.5000000000009 15223.500000000002 35.500000000000007 8.5000000000000018 4.5000000000000009 6.5000000000000009 77.500000000000014 8.5000000000000018 14.500000000000002 3.5000000000000004 4916.0800000000008 16.500000000000004 2.5000000000000004 19503.000000000004 2.5000000000000004 0.0085505000000000008 6018.5000000000009
decision_type=2 2 2 2 2 2 2 2 2 2 2 2 2 2 2 2 2 2 2 2 2 2 2 2 2 2 2 2 2 2
left_child=2 3 4 5 11 26 7 13 24 -10 -11 29 27 19 -15 -16 17 -5 22 21 -21 -6 23 -19 -9 -26 28 -7 -2 -1
right_child=1 -3 -4 16 6 12 -8 8 9 10 -12 -13 -14 14 15 -17 -18 18 -20 20 -22 -23 -24 -25 25 -27 -28 -29 -30 -31
leaf_value=0.16801527403164007 -0.017092602951685004 0.15358062888340493 -0.052185875434687973 0.24426714479557946 0.18969252657867039 0.067614654126755644 -0.053122417255931267 0.1848690403658495 0.1879364625522911 0.010339082798653058 0.25559445105924811 -0.033140651952705491 -0.024751971156623372 -0.031821619097589723 0.18365847425262585 0.078441163981521234 -0.050423427458758864 -0.036824937241163085 0.36174202084255053 0.15251514917467388 0.19010757545101509 0.16004291693759595 -0.052094584582531106 0.092668800327441833 0.049836154678103997 0.17090576089393272 -0.058155614706664298 0.29450402567206718 0.19704462800426331 -0.023793404757555817
leaf_weight=125.54393612593412 24.47196863591671 15869.797527313232 338.57856178283691 82.440515052527189 75016.120233729482 48.661868412047625 65.794597744941711 4346.3915058784187 240.71171230822802 608.46840972453356 69.773094654083252 352.67506340146065 399.72313131019473 223.3954019099474 2936.4176962338388 276.03337440267205 14716.564952660352 387.49181951209903 21.502461135387421 4716.5076053887606 7143.4336969852448 2102.4065366275609 1256.2161443121731 233.43571293354034 202.54987339675426 579.63004393875599 21.655231773853302 37.008888464421034 401.01904201880097 32.395231250673532
leaf_count=240 224 56510 8604 195 41536 525 1417 3472 199 4874 89 7777 9455 2040 2353 1253 387774 9480 38 9373 4392 3712 32568 4105 877 654 198 149 815 480
internal_value=0.149867 0.0521405 0.182811 -0.0391707 0.183614 0.0875422 0.184478 0.184637 0.162386 0.0754806 0.0355694 0.0169103 0.00884969 0.186093 0.161195 0.174618 -0.0462474 -0.0152257 -0.026493 0.187055 0.175158 0.188884 -0.0309402 0.0118578 0.177958 0.139554 0.172966 0.165629 0.184729 0.128673
internal_weight=132877 33500 99376.8 17630.2 99038.2 932.54 98527.6 98461.8 6047.52 918.953 678.242 510.614 485.394 92414.3 3435.85 3212.45 16697.7 1981.09 1898.65 88978.5 11859.9 77118.5 1877.14 620.928 5128.57 782.18 447.146 85.6708 425.491 157.939
internal_count=595378 502036 93342 445526 84738 11366 76241 74824 10165 5162 4963 8497 10129 64659 5646 3606 434160 46386 46191 59013 13765 45248 46153 13585 5003 1531 1237 674 1039 720
is_linear=0
shrinkage=0.05


Tree=5
num_leaves=31
num_cat=0
split_feature=6 18 9 6 4 14 14 4 16 19 14 13 19 16 14 14 8 8 16 17 16 6 2 0 19 12 15 19 10 19
split_gain=129426 99900.5 5763.38 5744.28 4322.62 1931.9 1646.77 1132.03 1406.03 3130.83 3316.11 951.881 1103.66 3735.68 2500.15 858.497 1822.98 947.035 848.609 822.851 783.882 654.705 829.94 553.217 476.172 463.249 421.978 397.607 372.439 617.777
threshold=1.0000000180025095e-35 1410.0000000000002 1.0000000180025095e-35 1.5000000000000002 115.58500000000002 9.5000000000000018 23.500000000000004 1717.2450000000001 19.500000000000004 3.5000000000000004 12.500000000000002 78612.700000000012 3.5000000000000004 24.500000000000004 19.500000000000004 8.5000000000000018 4.5000000000000009 6.5000000000000009 13.500000000000002 380.89241520467846 21.500000000000004 3.5000000000000004 4916.0800000000008 17317.500000000004 7.5000000000000009 24.500000000000004 1837257.2924760769 2.5000000000000004 9.5000000000000018 6.5000000000000009
decision_type=2 2 2 2 2 2 2 2 2 2 2 2 2 2 2 2 2 2 2 2 2 2 2 2 2 2 2 2 2 2
left_child=2 3 4 5 6 27 -1 8 23 10 -10 -9 13 -13 -15 16 -5 21 -7 -12 -8 22 -18 -6 -22 -14 -27 -2 -11 -30
right_child=1 -3 -4 15 7 18 20 11 9 28 19 12 25 14 -16 -17 17 -19 -20 -21 24 -23 -24 -25 -26 26 -28 -29 29 -31
leaf_value=0.12499646605832622 0.050977772910448353 0.13131630295215466 -0.052075069050631022 0.19667805104307018 0.16282359336692109 0.14545703324670375 0.16374652236401965 0.16561208217511364 0.16522855197928776 0.15593334600012132 0.13744615092736925 0.16154315238827821 0.16160396056375897 0.15981806074295193 0.043309198788278866 -0.050244384189052471 -0.036211820773869273 0.26367231565231664 -0.026179171773937172 -0.0018332334311230805 -0.052470888737286274 -0.051988294516095691 0.080963951009535198 -0.052473575737025317 0.20192068586957002 0.096089699409615759 0.18462886258286068 0.16679678161166356 0.070574200377709506 0.17701084323143185
leaf_weight=365.7133518345654 90.03851718083024 17582.70093536377 322.73397445678711 96.808225784450769 6949.0615704581141 88.601632572710514 53.091287564486265 65955.493866384029 570.09945315122604 3896.8029042929411 120.24534457921982 4798.452738635242 20628.930165693164 684.65224701911211 1406.1403599083424 14047.400633294135 374.67747547477484 27.813439734280109 384.71918714419007 897.91457363218069 389.77684940770268 1197.3311604037881 253.26329290866852 29.965945959091187 19.306070998311043 501.86956076323986 183.87944954633713 418.68869967758656 344.70724026858807 225.52191115915775
leaf_count=1375 643 56510 8604 195 4884 585 171 27450 473 5170 542 2815 11995 545 7813 387774 9480 38 9391 7658 9054 32568 4105 752 102 1878 138 747 1758 165
internal_value=0.132028 0.0477807 0.158904 -0.0387234 0.159534 0.078654 0.0457221 0.160413 0.146603 0.128973 0.0686776 0.162325 0.154637 0.137239 0.0814613 -0.045929 -0.0148398 -0.0258899 0.00594967 0.0146158 -0.0170069 -0.0303022 0.0110479 0.161899 -0.0404652 0.16026 0.119831 0.146298 0.150411 0.112669
internal_weight=142906 34562 108344 16979.3 108022 982.048 827.888 107194 13034.3 6055.29 1588.26 94159.4 28203.9 6889.25 2090.79 15997.3 1949.89 1853.09 473.321 1018.16 462.174 1825.27 627.941 6979.03 409.083 21314.7 685.749 508.727 4467.03 570.229
internal_count=595378 502036 93342 445526 84738 11366 10702 74036 21402 15766 8673 52634 25184 11173 8358 434160 46386 46191 9976 8200 9327 46153 13585 5636 9156 14011 2016 1390 7093 1923
is_linear=0
shrinkage=0.05


Tree=6
num_leaves=31
num_cat=0
split_feature=6 18 6 9 4 16 14 12 19 14 18 19 14 18 14 6 2 2 19 12 19 16 16 15 14 19 16 16 12 15
split_gain=102700 82382.4 5263.3 4613.15 3396.12 1834.82 1596.6 968.764 3499.23 2638.55 1149.03 1145.1 2286.89 1469.47 851.015 1588.03 1217.02 763.926 727.022 719.611 679.473 673.259 636.254 613.04 496.572 482.862 460.146 458.367 400.047 397.866
threshold=1.0000000180025095e-35 1410.0000000000002 1.5000000000000002 1.0000000180025095e-35 171.92000000000004 29.500000000000004 29.500000000000004 2.5000000000000004 2.5000000000000004 19.500000000000004 10.500000000000002 3.5000000000000004 77.500000000000014 12.500000000000002 8.5000000000000018 3.5000000000000004 4916.0800000000008 0.071484000000000006 5.5000000000000009 14.500000000000002 3.5000000000000004 55.500000000000007 22.500000000000004 157155.31871731012 18.500000000000004 6.5000000000000009 12.500000000000002 14.500000000000002 1836.5000000000002 1145.548834920635
decision_type=2 2 2 2 2 2 2 2 2 2 2 2 2 2 2 2 2 2 2 2 2 2 2 2 2 2 2 2 2 2
left_child=3 2 6 4 5 29 17 -6 9 -9 22 12 21 -14 15 16 28 -2 24 25 -18 -10 -11 -21 -7 -13 -8 -22 -4 -1
right_child=1 -3 14 -5 7 18 26 8 11 10 -12 19 13 -15 -16 -17 20 -19 -20 23 27 -23 -24 -25 -26 -27 -28 -29 -30 -31
leaf_value=0.064951239357116552 0.028967808198598358 0.11464631726990981 -0.03072775815080845 -0.05197005002929616 0.148514289659337 0.096159828662315108 0.13929913933140309 0.13721000197354213 0.13713710892138423 0.070771016350006308 0.13028495089980552 0.14074641244076463 0.018151298268692308 0.14765715698912404 -0.050067274835566195 -0.05189552180763729 0.038149372993150514 0.14646355718485171 0.10675283140429191 0.10351104990855778 0.26776344223348508 0.060435494207241459 -0.015533095404238653 0.14885887180572765 -0.043995473533054504 0.15021326521010747 -0.041689047969505615 0.10904234336745511 0.33218536814143645 0.14146078897043074
leaf_weight=249.95489930734038 190.43461523205042 19089.305740356445 370.36351051926613 307.59870147705078 45686.621454741806 73.784935861825943 40.008062489330769 1077.3277179561555 6938.5556315295398 297.53637557476759 238.84637903422117 29137.212456066161 758.53801998496056 307.96935001015663 13408.430931046605 1143.0394911915064 202.48704429715872 505.70575604587793 134.31647092103958 1975.2650364153087 73.265008080750704 298.40099917724729 756.58671183884144 1196.8478462696075 440.45330264419317 25049.22486037761 287.3489226475358 119.9706595428288 7.7525079250335684 530.67574042454362
leaf_count=1612 1989 56510 9481 8604 15902 245 150 823 8794 745 300 18990 4714 290 387774 32588 2838 1945 685 4122 283 1467 5242 776 9437 9341 7282 1157 39 1253
internal_value=0.11855 0.0440958 -0.0382808 0.141404 0.14192 0.0653243 0.0714977 0.142883 0.139101 0.0794175 0.0312636 0.141255 0.123901 0.055548 -0.0456123 -0.0144503 0.0408601 0.114322 0.00316991 0.143768 0.102153 0.133974 0.00882707 0.120621 -0.0238854 0.145123 -0.0195695 0.169221 -0.023287 0.116963
internal_weight=150894 35438.1 16348.8 115456 115148 1429.19 1023.5 113719 68032.3 2370.3 1292.97 65662 8303.46 1066.51 15325.3 1916.88 773.839 696.14 648.555 57358.6 395.723 7236.96 1054.12 3172.11 514.238 54186.4 327.357 193.236 378.116 780.631
internal_count=595378 502036 445526 93342 84738 13232 11366 71506 55604 7110 6287 48494 15265 5004 434160 46386 13798 3934 10367 33229 4278 10261 5987 4898 9682 28331 7432 1440 9520 2865
is_linear=0
shrinkage=0.05


Tree=7
num_leaves=31
num_cat=0
split_feature=6 18 6 9 4 14 4 16 19 14 14 6 2 13 19 14 16 14 4 0 19 12 19 14 16 17 19 13 15 15
split_gain=84377.4 69171.8 4845.84 3800.84 2841.77 1308.25 1131.63 1223.8 2208 2127.93 843.15 1468.38 1003.39 790.332 824.903 1979.1 3240.84 671.906 614.769 539.252 491.039 448.727 428.89 669.77 396.473 384.038 351.868 344.654 331.788 303.073
threshold=1.0000000180025095e-35 1410.0000000000002 1.5000000000000002 1.0000000180025095e-35 73.155000000000015 29.500000000000004 1717.2450000000001 27.500000000000004 3.5000000000000004 25.500000000000004 8.5000000000000018 3.5000000000000004 4916.0800000000008 69317.625000000015 4.5000000000000009 29.500000000000004 33.500000000000007 19.500000000000004 0.024174000000000005 17317.500000000004 3.5000000000000004 31.500000000000004 5.5000000000000009 48.500000000000007 12.500000000000002 207.1347368421053 5.5000000000000009 228235.56500000003 1837257.2924760769 7731.081996370237
decision_type=2 2 2 2 2 2 2 2 2 2 2 2 2 2 2 2 2 2 2 2 2 2 2 2 2 2 2 2 2 2
left_child=3 2 5 4 17 18 7 19 9 -9 11 12 26 -8 15 -15 -17 -1 -2 29 -14 -16 23 -10 -7 -11 -4 -22 -23 -6
right_child=1 -3 10 -5 6 24 13 8 22 25 -12 -13 20 14 21 16 -18 -19 -20 -21 27 28 -24 -25 -26 -27 -28 -29 -30 -31
leaf_value=0.087433775886062784 -0.0052173260625583513 0.10163583038950935 -0.045393512032110062 -0.051870547807082223 0.1181290139971044 0.12088947089128457 0.13365821043773371 0.11671319096823565 0.11551232923418438 0.14755776491678377 -0.049890947075825781 -0.051799739592576416 0.035118642939561316 0.12996215747832782 0.13258238228739558 0.1217927488845922 0.04233489842159513 -0.034409957899896704 0.12124862562030359 -0.052964449178106471 0.19454202010545835 0.068498043401512651 0.12943005474518104 0.047274828827606856 -0.04119352199074125 -0.025591756817612828 0.081922123046138259 0.066250387567862307 0.14547946269411052 0.13570992260770581
leaf_weight=175.26206824183464 113.48407805338502 20418.837181091309 304.12026018276811 293.14401340484619 4782.8217090629041 43.690037582069635 71969.745967052877 500.70622608438134 1277.4063152074814 33.591499842703342 12798.401104580611 1089.2525856941938 208.79302447289228 8718.3899042978883 18437.13351623714 3370.0196339935064 2072.4774874001741 319.25027376413345 627.17083812505007 41.737590789794922 129.07691837102175 477.11588998138905 2169.0980774015188 500.49203951656818 276.54028297960758 686.14303018897772 66.057281255722046 88.071204364299774 198.07585567235947 5028.7233403325081
leaf_count=673 1447 56510 8516 8604 5504 150 26537 618 2006 199 387774 32588 2838 4523 8091 3391 8289 7572 2487 916 649 1682 2032 2724 7282 7378 1004 791 121 2482
internal_value=0.10793 0.0409132 -0.0378364 0.127951 0.128388 0.0653619 0.12888 0.116041 0.0963339 0.037557 -0.0452924 -0.0140759 0.0375379 0.130712 0.12434 0.115194 0.0915356 0.00877316 0.101871 0.126377 0.0898673 0.131116 0.114508 0.0963029 -0.01908 -0.0175105 -0.0226743 0.142509 0.0910815 0.12714
internal_weight=157215 36163.5 15744.7 121051 120758 1060.89 120264 15020.7 5167.44 1220.44 14683.8 1885.37 796.119 105243 33273.2 14160.9 5442.5 494.512 740.655 9853.28 425.941 19112.3 3947 1777.9 320.23 719.735 370.178 217.148 675.192 9811.55
internal_count=595378 502036 445526 93342 84738 11366 76493 23859 14957 8195 434160 46386 13798 52634 26097 16203 11680 8245 3934 8902 4278 9894 6762 4730 7432 7577 9520 1440 1803 7986
is_linear=0
shrinkage=0.05


Tree=8
num_leaves=31
num_cat=0
split_feature=6 18 6 9 4 16 14 1 14 16 14 6 15 19 0 0 19 12 19 14 14 16 19 16 17 0 14 12 19 0
split_gain=71222.4 58884.4 4482.96 3200.63 2413.18 1301.07 1107.24 928.18 1731.95 939.752 834.671 1362.89 879.26 799.813 690.389 2222.64 637.698 611.188 1679.47 1607.19 601.819 702.114 563.214 493.955 453.057 422.407 399.769 368.957 305.158 304.579
threshold=1.0000000180025095e-35 1410.0000000000002 1.5000000000000002 1.0000000180025095e-35 171.92000000000004 29.500000000000004 7.5000000000000009 5342.5000000000009 33.500000000000007 17.500000000000004 8.5000000000000018 3.5000000000000004 1514.889388888889 7.5000000000000009 6125.5000000000009 13852.500000000002 4.5000000000000009 5.5000000000000009 3.5000000000000004 71.500000000000014 35.500000000000007 25.500000000000004 5.5000000000000009 13.500000000000002 7327.8007564102581 17317.500000000004 18.500000000000004 35.500000000000007 3.5000000000000004 17317.500000000004
decision_type=2 2 2 2 2 2 2 2 2 2 2 2 2 2 2 2 2 2 2 2 2 2 2 2 2 2 2 2 2 2
left_child=3 2 6 4 5 28 -2 14 29 -10 11 12 -4 24 17 -16 -14 -6 19 -19 25 -22 26 -8 -11 -17 -7 -20 -1 -9
right_child=1 -3 10 -5 7 22 23 8 9 13 -12 -13 16 -15 15 20 -18 18 27 -21 21 -23 -24 -25 -26 -27 -28 -29 -30 -31
leaf_value=0.063462246960756294 0.10650956759683453 0.091159016922041064 -0.040714224439279044 -0.05177622856193298 0.12263958983139284 0.077614058424521071 0.091972766173280554 0.11210169681774391 0.11806019886661519 0.049894749492451318 -0.049715293579159527 -0.051708956285921384 0.033717620142144841 0.1468205350319369 -0.062567618900939578 0.11512666473501215 0.14894983913929563 0.098055601397092518 0.11876337901177535 0.0067313704579922348 0.11518570682247836 -0.030299523854516015 0.087042290330418562 -0.023013961984449834 -0.033478742584693758 -0.054231322605534163 -0.043522951213485345 0.080343267130850063 0.12303281127108107 -0.054232230469229481
leaf_weight=404.59282826259732 591.37836262956262 21594.464157104492 262.34600087627769 279.3423638343811 79743.297237958759 81.288803365081549 124.172961037606 6494.5944591239095 309.60066306591034 255.43028622865677 12216.111041102558 1037.9022297263145 376.82570290192962 101.50446319580078 200.58077271655202 3775.042139545083 176.20363814011216 2041.4118119701743 28506.984366819263 630.57740250229836 167.75019312649965 164.01047817617655 148.29113279283047 376.82803271710873 450.01708777248859 37.18057107925415 420.0195110924542 638.88797791302204 458.72923908755183 27.638982653617859
leaf_count=2144 1237 56510 7186 8604 31056 245 674 4797 198 1300 387774 32588 5573 80 1454 2534 1039 4395 14828 3900 156 984 685 9455 3065 669 9437 1590 721 500
internal_value=0.0993333 0.0381307 -0.0373961 0.117282 0.117659 0.0548947 0.0601766 0.118428 0.101546 0.0440043 -0.0449718 -0.0137048 0.0346711 0.0155915 0.11954 0.0999858 0.0704324 0.120302 0.114443 0.0765035 0.107854 0.0432631 0.0014413 0.00548547 -0.00329064 0.113475 -0.0238802 0.117921 0.0951153 0.111397
internal_weight=162093 36756.2 15161.8 125337 125057 1512.92 1092.38 123545 7638.79 1116.55 14069.4 1853.28 815.375 806.952 115906 4344.56 553.029 111561 31817.9 2671.99 4143.98 331.761 649.599 501.001 705.447 3812.22 501.308 29145.9 863.322 6522.23
internal_count=595378 502036 445526 93342 84738 13232 11366 71506 9940 4643 434160 46386 13798 4445 61566 5797 6612 55769 24713 8295 4343 1140 10367 10129 4365 3203 9682 16418 2865 5297
is_linear=0
shrinkage=0.05


Tree=9
num_leaves=31
num_cat=0
split_feature=6 18 6 9 4 16 14 12 19 14 19 14 18 18 14 6 15 12 14 15 19 19 4 16 14 19 16 15 0 10
split_gain=61394.2 50672.3 4164.41 2740.36 2078.5 1096.42 948.921 912.321 2553.33 1959.21 917.53 1508.36 1252.39 882.706 827.023 1268.84 758.533 669.851 543.456 504.178 494.017 487.496 468.258 461.681 363.401 322.284 313.094 296.436 328.895 273.76
threshold=1.0000000180025095e-35 1410.0000000000002 1.5000000000000002 1.0000000180025095e-35 171.92000000000004 29.500000000000004 29.500000000000004 2.5000000000000004 2.5000000000000004 19.500000000000004 3.5000000000000004 71.500000000000014 12.500000000000002 10.500000000000002 8.5000000000000018 3.5000000000000004 1514.889388888889 16.500000000000004 18.500000000000004 157155.31871731012 5.5000000000000009 4.5000000000000009 0.024174000000000005 19.500000000000004 18.500000000000004 6.5000000000000009 12.500000000000002 1145.548834920635 6009.5000000000009 1.5000000000000002
decision_type=2 2 2 2 2 2 2 2 2 2 2 2 2 2 2 2 2 2 2 2 2 2 2 2 2 2 2 2 2 2
left_child=3 2 6 4 5 27 22 -6 9 -9 11 18 -13 23 15 16 -4 25 -10 -19 24 29 -2 -11 -7 -12 -8 28 -1 -18
right_child=1 -3 14 -5 7 20 26 8 10 13 17 12 -14 -15 -16 -17 21 19 -20 -21 -22 -23 -24 -25 -26 -27 -28 -29 -30 -31
leaf_value=0.07738779025575003 -0.0079138829954459346 0.082514097035337103 -0.04018636652683176 -0.05168681536251845 0.11481675001036225 0.071245900310437899 0.096831173187116107 0.10459712388248438 0.11260414095185758 0.063190163557718476 0.10768414564874287 0.013957178231701423 0.11861363737072893 0.099640660981226703 -0.049540190759382041 -0.051622896127320142 0.067761794449028648 0.068292235124383815 0.086184093026139066 0.11277475129084656 0.079204764278365036 0.128321627385454 0.10003834340435434 -0.016753502288819618 -0.04302287043905717 0.11494231111837745 -0.04041646294402991 0.10657104144616819 -0.043523921746714572 -0.01716484279675437
leaf_weight=209.35419216565788 117.56421214714646 22635.21272277832 252.70486755296588 266.16674613952637 50622.106380917132 84.051198348402977 49.428100742399693 1203.2196575962007 4666.3488692045212 224.3329292088747 32586.027866892517 967.7972287684679 405.67967955768108 267.66043056547642 11660.408029709011 988.88756088912487 220.23729550465941 1640.6830046698451 3339.3101592063904 1041.3038662672043 154.64182355999947 193.79546158760786 690.1667807996273 926.36083874106407 404.06243433430791 28821.398126106709 260.81739251688123 610.58984808251262 76.90102219209075 166.72480134293437
leaf_count=669 1447 56510 7186 8604 15902 245 150 823 2354 392 19053 5310 304 300 387774 32588 2281 3555 7297 636 685 1039 2487 5595 9437 9985 7282 1253 943 3292
internal_value=0.0922015 0.0356684 -0.0369554 0.108581 0.108914 0.0511681 0.0557772 0.109615 0.106155 0.0576673 0.107885 0.0932786 0.0448692 0.0178557 -0.0446447 -0.0133204 0.0321247 0.110022 0.101584 0.0855629 0.0013267 0.0635894 0.084326 -0.00116812 -0.0233462 0.111091 -0.0185503 0.0868886 0.0449055 0.0311707
internal_weight=165754 37235.9 14600.7 128518 128252 1539.6 1117.98 126712 76090.1 2621.57 73468.5 9379.14 1373.48 1418.35 13482.8 1822.35 833.462 64089.4 8005.66 2681.99 642.755 580.758 807.731 1150.69 488.114 61407.4 310.245 896.845 286.255 386.962
internal_count=595378 502036 445526 93342 84738 13232 11366 71506 55604 7110 48494 15265 5614 6287 434160 46386 13798 33229 9651 4191 10367 6612 3934 5987 9682 29038 7432 2865 1612 5573
is_linear=0
shrinkage=0.05


Tree=10
num_leaves=31
num_cat=0
split_feature=6 18 6 9 4 16 12 19 14 1 19 16 14 14 14 6 14 18 12 14 16 19 18 10 15 16 1 18 16 17
split_gain=53844.8 43990.6 3878.09 2377.62 1851.66 1197.14 854.014 2125.85 1693.36 849.77 824.821 1400.49 1713.07 818.392 817.575 1184.02 802.074 685.399 614.619 526.706 486.755 481.7 465.863 450.71 422.321 373.544 338.897 298.826 292.848 283.839
threshold=1.0000000180025095e-35 1410.0000000000002 1.5000000000000002 1.0000000180025095e-35 209.57500000000002 24.500000000000004 2.5000000000000004 2.5000000000000004 19.500000000000004 328.50000000000006 3.5000000000000004 33.500000000000007 30.500000000000004 7.5000000000000009 8.5000000000000018 3.5000000000000004 19.500000000000004 1.5000000000000002 17.500000000000004 1.5000000000000002 25.500000000000004 7.5000000000000009 1.5000000000000002 2.5000000000000004 182203.6722953608 13.500000000000002 4.5000000000000009 9.5000000000000018 5.5000000000000009 13200.330833333335
decision_type=2 2 2 2 2 2 2 2 2 2 2 2 2 2 2 2 2 2 2 2 2 2 2 2 2 2 2 2 2 2
left_child=3 2 13 4 5 22 -6 8 -8 -10 11 29 -13 -2 15 17 -7 19 27 28 -11 26 -1 -19 -20 -15 -18 -12 -4 -9
right_child=1 -3 14 -5 6 16 7 10 9 20 18 12 -14 25 -16 -17 21 23 24 -21 -22 -23 -24 -25 -26 -27 -28 -29 -30 -31
leaf_value=0.015239370104212011 0.089583692406022403 0.075239481936198491 -0.055768596724253564 -0.051602035735843405 0.10741486399393818 0.078576454268534573 0.097820931701741873 0.10692791201944783 0.076968293764958118 0.036670205232257495 0.10219986744460335 0.098277395294640926 0.022092756998292579 0.074355212975717219 -0.049364620823617471 -0.051541300125808411 0.26841486792864355 0.099390459382252855 0.060997390182315786 -0.043982724527974831 -0.035803301726559954 0.10978315697894869 0.10406988084099844 -0.022297231901199002 0.10455859444790719 -0.022143449588720811 -0.036983871908065277 0.11211868547781863 0.16787072670118564 0.084690680192170922
leaf_weight=174.80432307720184 636.09265716001391 23557.152488708496 20.37350157648325 253.59110736846924 51197.304240485653 325.49084471166134 1223.35693965666 4455.2405706048012 418.3210789039731 374.74597522988915 53837.587731966749 1407.4998992793262 1550.9395394809544 138.12711063399911 11130.141557406634 942.11044052243233 9.2300842218101007 347.14970699325204 1459.7899778615683 331.20231628417969 606.87168150022626 66.613545499742031 948.24814115464687 97.454223185777664 899.07542587816715 366.06063915789127 573.61373126506805 8840.2911271341145 51.998351611196995 2116.801748752594
leaf_count=1241 1237 56510 370 8604 15636 622 805 2968 981 947 26516 1177 7871 674 387774 32588 53 3088 3320 8153 4163 145 1090 1918 545 9455 11501 2360 269 2797
internal_value=0.0861813 0.0334665 -0.0365194 0.101349 0.101646 0.0550524 0.102408 0.0990865 0.0548476 0.0172947 0.100643 0.0869057 0.0583382 0.0518716 -0.0443203 -0.0129597 0.0145156 0.0298947 0.102656 -0.0172815 -0.00813555 -0.0175899 0.0902433 0.0727173 0.0776006 0.00429329 -0.0321475 0.103599 0.104914 0.0997655
internal_weight=168357 37617.9 14060.7 130739 130486 2098 128388 77190.5 2623.3 1399.94 74567.2 9530.48 2958.44 1140.28 12920.4 1790.29 974.948 848.178 65036.7 403.574 981.618 649.457 1123.05 444.604 2358.87 504.188 582.844 62677.9 72.3719 6572.04
internal_count=595378 502036 445526 93342 84738 14652 70086 54450 6896 6091 47554 14813 9048 11366 434160 46386 12321 13798 32741 8792 5110 11699 2331 5006 3865 10129 11554 28876 639 5765
is_linear=0
shrinkage=0.05


Tree=11
num_leaves=31
num_cat=0
split_feature=6 18 6 9 4 16 14 19 14 6 14 12 19 10 13 18 13 8 2 12 18 2 0 15 19 19 14 18 10 15
split_gain=47897.7 38466.3 3621.85 2085.09 1729.54 1201.84 1296 1129.47 807.016 1106.32 717.132 700.369 1427.95 1267.56 828.307 691.324 632.109 616.98 598.117 438.376 407.605 388.928 375.921 342.516 315.462 303.789 850.057 294.163 342.951 286.197
threshold=1.0000000180025095e-35 1410.0000000000002 1.5000000000000002 1.0000000180025095e-35 745.8900000000001 27.500000000000004 29.500000000000004 4.5000000000000009 8.5000000000000018 3.5000000000000004 29.500000000000004 5.5000000000000009 3.5000000000000004 3.5000000000000004 228235.56500000003 1.5000000000000002 27209.065000000002 5.5000000000000009 2876.5900000000006 17.500000000000004 12.500000000000002 0.071484000000000006 5392.5000000000009 1443089.6530261459 4.5000000000000009 4.5000000000000009 29.500000000000004 3.5000000000000004 9.5000000000000018 10311756.612454375
decision_type=2 2 2 2 2 2 2 2 2 2 2 2 2 2 2 2 2 2 2 2 2 2 2 2 2 2 2 2 2 2
left_child=3 2 10 4 5 15 -7 -8 9 16 21 -6 13 -13 18 17 29 -1 -15 25 -16 -2 -19 -21 -18 26 -14 -9 -29 -4
right_child=1 -3 8 -5 11 6 7 27 -10 -11 -12 12 19 14 20 -17 24 22 -20 23 -22 -23 -24 -25 -26 -27 -28 28 -30 -31
leaf_value=0.096049398681385567 0.01383698285786064 0.069018608667746478 -0.02977876121916706 -0.051521637024808588 0.099342802816770159 0.079229957290102487 -0.024365873676084657 -0.0088075580805160574 -0.049188961421996233 -0.051463926194078281 -0.01803410272326501 0.10080439291480055 0.10097974830400835 0.0024807164756314795 -0.01989710576612029 0.094887561796317854 0.027079938105136394 0.045367518859649132 0.08025552032854244 0.060636960314996102 0.10491439914775498 0.091317601475575716 -0.057928207417922498 0.10574720558024456 0.10446380015782575 0.097974841572172011 0.060746185188026131 0.11838584248079542 0.027044631512479836 0.71075775049762857
leaf_weight=263.93540741503239 216.70986407995224 24374.035942077637 326.10668402165174 241.59020471572876 87976.87420707196 1499.6527416706085 837.33995738625526 101.55477125570178 10624.286910347641 897.4765323549509 300.28707797080278 1141.9488283768296 3304.4601740092039 338.10773353278637 660.25170651078224 4264.3899237588048 296.63461841270328 180.48338364064693 919.39276334643364 1606.710068359971 72.607393220067024 641.15706490725279 172.03439082205296 570.10346519947052 236.86321662738919 25359.473316922784 2178.2346614450216 285.28219345584512 160.62223471701145 1.3099452257156361
leaf_count=277 1989 56510 8107 8604 33804 2550 13111 789 387774 32588 7432 618 1265 1622 4136 3720 4264 465 1992 3292 86 1945 1971 244 1422 10420 3045 434 897 5
internal_value=0.0810197 0.0314812 -0.0360876 0.0952344 0.0955032 0.0726114 0.0470238 0.0121464 -0.043996 -0.0126202 0.0484669 0.0969352 0.0910763 0.0588125 0.0347201 0.087733 0.0278732 0.0382402 0.059344 0.094137 -0.00753151 0.0717449 -0.00504247 0.0724513 0.0614369 0.0956675 0.0849952 0.0679921 0.0854832 -0.026816
internal_weight=170050 37914.9 13540.8 132135 131893 7765.3 2884.45 1384.8 12382.7 1758.39 1158.15 124128 36151.3 3132.31 1990.36 4880.84 860.914 616.453 1257.5 33019 732.859 857.867 352.518 2176.81 533.498 30842.2 5482.69 547.459 445.904 327.417
internal_count=595378 502036 445526 93342 84738 24214 17781 15231 434160 46386 11366 60524 26720 8454 7836 6433 13798 2713 3614 18266 4222 3934 2436 3536 5686 14730 4310 2120 1331 8112
is_linear=0
shrinkage=0.05


Tree=12
num_leaves=31
num_cat=0
split_feature=6 18 6 2 9 2 16 19 14 13 14 6 1 14 14 18 15 14 18 14 0 1 10 18 16 19 16 0 14 7
split_gain=43103.6 33835.8 3387.07 1864.7 1486.6 1117.2 910.816 1648.73 2036.16 821.009 798.364 1035.4 750.344 847.875 635.052 560.356 553.651 483.597 1357.48 419.199 345.991 330.798 391.759 322.719 316.046 314.871 269.651 243.153 228.074 227.478
threshold=1.0000000180025095e-35 1410.0000000000002 1.5000000000000002 72.445000000000007 1.0000000180025095e-35 2351.3650000000002 19.500000000000004 3.5000000000000004 13.500000000000002 66539.430000000022 8.5000000000000018 3.5000000000000004 6583.5000000000009 35.500000000000007 5.5000000000000009 10.500000000000002 1514.889388888889 46.500000000000007 3.5000000000000004 19.500000000000004 17317.500000000004 2194.5000000000005 2.5000000000000004 2.5000000000000004 20.500000000000004 3.5000000000000004 9.5000000000000018 22454.000000000004 5.5000000000000009 1.0000000180025095e-35
decision_type=2 2 2 2 2 2 2 2 2 2 2 2 2 2 2 2 2 2 2 2 2 2 2 2 2 2 2 2 2 2
left_child=3 2 14 19 5 6 20 8 -8 -7 11 16 17 -14 27 -10 -4 23 -19 -1 -5 -9 -23 -11 -16 -18 -15 29 -27 -2
right_child=1 -3 10 4 -6 9 7 21 15 12 -12 -13 13 26 24 -17 25 18 -20 -21 -22 22 -24 -25 -26 28 -28 -29 -30 -31
leaf_value=0.053761055956487669 -0.012641360723091841 0.063626754411443512 -0.039312001880841149 0.090522051037050549 -0.051377632566953241 0.095720014732517122 0.092826983038339306 0.088181506886734221 -0.0096194299725602065 0.084245466604883662 -0.049011888719229443 -0.05139054688682454 0.072710950281347872 0.093682187727836541 0.055147514925957854 0.083758133794177972 0.012095307748176751 -0.0038682758478320229 0.082862728308229799 -0.036202870391776158 -0.053099794797339388 0.083070609756962455 0.045689692603950033 0.095941917786941458 -0.023802652770092775 0.099143842187888825 -0.02691720023371609 -0.063030727173697274 -0.01721295497901883 0.095561532813548081
leaf_weight=209.05296682193875 53.263196140527725 25097.810043334961 236.75747527182102 11850.7922575064 184.75004404783249 72799.781042903662 957.4446215890348 5380.1115484237671 1436.3318731859326 9198.5638509299606 10141.713763132691 854.89434799551964 1573.2055727187544 53.887522205710411 201.93949992954731 180.89893687516451 292.92147637531161 476.34549970924854 8530.5892479270697 340.20997774600983 42.082657337188721 1646.0142395421863 1220.7039554491639 16432.443290986121 340.49474284052849 295.93110262230039 331.38132470101118 28.652339935302734 49.102396011352539 551.71434240043163
leaf_count=762 284 56510 7186 6454 7120 23342 600 4891 9983 6149 387774 32588 1591 31 1512 395 4435 1850 7579 8925 882 1458 3020 6438 8722 1522 1872 197 655 651
internal_value=0.0765217 0.0296734 -0.0356388 0.0899738 0.0903555 0.0905537 0.0804631 0.0699669 0.0350381 0.0926489 -0.0436571 -0.0122591 0.0865396 0.0564305 0.0452995 0.000825524 0.0259858 0.088242 0.0782758 -0.00196203 0.0900138 0.0808717 0.0671531 0.0917442 0.00558922 0.0502191 -0.010049 0.0792945 0.0825849 0.0860352
internal_weight=170990 38145.2 13047.4 132845 132295 132111 22714.4 10821.5 2574.68 109396 11871.3 1729.61 36596.4 1958.47 1176.06 1617.23 874.712 34637.9 9006.93 549.263 11892.9 8246.83 2866.72 25631 542.434 637.955 385.269 633.63 345.033 604.978
internal_count=595378 502036 445526 93342 83655 76535 27683 20347 10978 48852 434160 46386 25510 3494 11366 10378 13798 22016 9429 9687 7336 9369 4478 12587 10234 6612 1903 1132 2177 935
is_linear=0
shrinkage=0.05


Tree=13
num_leaves=31
num_cat=0
split_feature=6 18 6 2 14 9 16 14 6 12 19 14 18 14 18 1 19 17 14 12 14 18 14 16 4 16 18 14 18 15
split_gain=39138.6 29913.6 3174.54 1754.95 1113.14 922.789 826.939 787.759 971.171 768.351 1585.29 1264.73 751.555 884.938 715.598 705.708 587.173 1063.27 902.747 597.413 563.581 513.074 422.098 394.981 391.498 369.281 593.381 1099.35 454.115 352.314
threshold=1.0000000180025095e-35 1410.0000000000002 1.5000000000000002 742.96500000000003 53.500000000000007 1.0000000180025095e-35 21.500000000000004 8.5000000000000018 3.5000000000000004 2.5000000000000004 2.5000000000000004 19.500000000000004 1.5000000000000002 2.5000000000000004 8.5000000000000018 493.50000000000006 3.5000000000000004 15980.978109894675 19.500000000000004 14.500000000000002 46.500000000000007 1.5000000000000002 1.5000000000000002 25.500000000000004 0.0085505000000000008 19.500000000000004 4.5000000000000009 16.500000000000004 2.5000000000000004 157155.31871731012
decision_type=2 2 2 2 2 2 2 2 2 2 2 2 2 2 2 2 2 2 2 2 2 2 2 2 2 2 2 2 2 2
left_child=3 2 20 4 12 9 -6 8 21 -5 11 -11 13 -1 -8 -13 17 -12 -19 -18 24 22 -4 -17 -2 -14 27 -27 -29 -21
right_child=1 -3 7 5 6 -7 14 -9 -10 10 16 15 25 -15 -16 23 19 18 -20 29 -22 -23 -24 -25 -26 26 -28 28 -30 -31
leaf_value=0.064979683969145136 -0.045227064879516041 0.058899987681554328 0.084317266344454411 0.091779652047267485 0.08125257066083845 -0.051271308665654838 -0.028309039388490123 -0.048832989866713458 -0.051320924637683674 0.082682352841303874 0.085777489741342958 0.058120388247234082 0.089903990509676929 -0.039963318649930246 0.064562478740873286 0.026205273392923618 0.088019718446730122 0.08259688421162896 0.028613248829715689 0.054394208094617626 -0.036607224063320128 0.058801028544817016 -0.043712497280708779 -0.044557133794478898 0.067173777224043038 0.081344699754603289 0.11218863467154244 -0.045257860311535406 0.033791797353660641 0.086947267402046002
leaf_weight=580.24980066157877 84.655889235436916 25738.891822814941 80.759734904393554 49893.31079384312 426.95282485149801 120.83058619499207 723.73629238083959 9681.4935036431998 814.27593913674355 1162.0682855788618 6008.4263205528259 501.44706734642386 3058.7721720021218 307.25792173296213 290.74055286310613 322.87426621839404 59736.262102661654 1290.2815732210875 1937.0489097386599 2176.404452573508 188.65939049609005 486.46035001799464 317.35471343994141 506.64512454718351 912.59609340690076 1265.3048393260688 516.41758252307773 276.88367289118469 528.38159914501011 1344.701375067234
leaf_count=1330 1334 56510 639 13975 530 4997 11887 387774 32588 663 4770 1016 1792 2605 1848 729 24622 785 6436 3691 5488 5006 8153 3126 4544 935 478 3144 3244 739
internal_value=0.072559 0.0280266 -0.0352099 0.0853871 0.0626457 0.0868379 0.0228757 -0.0433224 -0.0119186 0.0869715 0.0837724 0.0445695 0.0714202 0.0286481 -0.00169284 0.011293 0.0851206 0.0733439 0.0501958 0.08684 0.0426402 0.0243523 -0.0177409 -0.0170142 0.0576322 0.0781439 0.0642391 0.0522801 0.00661124 0.0668261
internal_weight=171280 38305.1 12566.3 132975 7974.7 125000 1441.43 11380.3 1698.85 124879 74986.2 2493.03 6533.27 887.508 1014.48 1330.97 72493.1 9235.76 3227.33 63257.4 1185.91 884.575 398.114 829.519 997.252 5645.76 2586.99 2070.57 805.265 3521.11
internal_count=595378 502036 445526 93342 27793 65549 14265 434160 46386 60552 46577 5534 13528 3935 13735 4871 41043 11991 7221 29052 11366 13798 8792 3855 5878 9593 7801 7323 6388 4430
is_linear=0
shrinkage=0.05


Tree=14
num_leaves=31
num_cat=0
split_feature=6 18 6 2 16 14 19 9 14 6 12 19 14 18 14 12 18 8 14 18 13 16 18 15 14 1 16 16 19 14
split_gain=35879.3 26559 2976.96 1643.65 998.649 1111.23 1103.54 827.298 778.483 911.699 775.137 1451.59 1805.85 1534.75 1191.49 586.268 556.367 526.872 518.56 502.07 471.516 416.988 409.483 316.783 283.813 277.73 278.467 261.625 254.886 781.437
threshold=1.0000000180025095e-35 1410.0000000000002 1.5000000000000002 742.96500000000003 19.500000000000004 19.500000000000004 4.5000000000000009 1.0000000180025095e-35 8.5000000000000018 3.5000000000000004 2.5000000000000004 3.5000000000000004 19.500000000000004 2.5000000000000004 77.500000000000014 17.500000000000004 1.5000000000000002 5.5000000000000009 5.5000000000000009 12.500000000000002 27209.065000000002 21.500000000000004 2.5000000000000004 182203.6722953608 1.5000000000000002 277.50000000000006 43.500000000000007 26.500000000000004 5.5000000000000009 26.500000000000004
decision_type=2 2 2 2 2 2 2 2 2 2 2 2 2 2 2 2 2 2 2 2 2 2 2 2 2 2 2 2 2 2
left_child=3 2 18 4 16 -6 19 10 9 20 -5 12 -12 21 -15 28 17 -1 -2 25 -4 -14 -8 -17 -19 26 -7 -20 29 -13
right_child=1 -3 8 7 5 6 22 -9 -10 -11 11 15 13 14 -16 23 -18 24 27 -21 -22 -23 -24 -25 -26 -27 -28 -29 -30 -31
leaf_value=0.086812568624605735 0.070166330197280399 0.054715774183457133 -0.026261881325418707 0.087766310933598782 0.070966256979971679 0.070599316268614445 -0.066113934231318033 -0.051207755575580244 -0.048652960927375338 -0.051254892372236738 0.083531493149288649 0.086812906276377777 0.072081542082523473 0.068889929423001636 0.017447648950837721 0.043208928849564621 0.084520816217560343 0.068798880757572817 0.038128121781134526 0.098049780973179887 0.049629604662607546 -0.042982726893697552 0.073603102444776067 0.081511496513093334 -0.041800073209416519 -0.028483412390588183 -0.044058308266628397 -0.030986969847698144 0.086472644060756734 0.069127403484432734
leaf_weight=229.9186722561717 651.46161434054375 26306.442367553711 316.59267488121986 49573.533234868199 1799.9282862320542 155.47988509573042 56.302652135491371 115.07666969299316 9242.5931395590305 775.53599625825882 5781.1994589548558 16068.04777523689 91.243420369923115 3715.8474477492273 1614.7607041634619 1411.7868444435298 3442.4451158121228 77.983455829322338 278.62709894031286 101.39198950305581 578.92872869968414 574.4754009321332 764.73337192833424 874.00237257778645 226.42392105609179 1053.5420556459576 80.307166613638401 269.22241342812777 34524.300159720704 10217.813684752211
leaf_count=185 1132 56510 8112 13975 2016 1167 639 4997 387774 32588 2694 5589 92 6180 5706 3015 2147 119 3006 419 5686 2853 2235 525 2057 15224 1585 7228 11905 8018
internal_value=0.0690513 0.0265063 -0.0347578 0.0813828 0.0593968 0.0417954 0.0180562 0.0827928 -0.0429748 -0.0115689 0.0829167 0.0797058 0.0635919 0.0443676 0.0533069 0.0827136 0.0771527 0.0296831 0.0400161 -0.00908049 0.0227998 -0.027212 0.064022 0.0578544 -0.0134667 -0.0175051 0.0315479 0.00416381 0.0836481 0.0799382
internal_weight=170970 38419.4 12113 132551 7988.46 4011.69 2211.76 124562 10913.7 1671.06 124447 74873.5 11777.5 5996.33 5330.61 63096 3976.77 534.326 1199.31 1390.72 895.521 665.719 821.036 2285.79 304.407 1289.33 235.787 547.85 60810.2 26285.9
internal_count=595378 502036 445526 93342 27793 23285 21269 65549 434160 46386 60552 46577 17525 14831 11886 29052 4508 2361 11366 18395 13798 2945 2874 3540 2176 17976 2752 10234 25512 13607
is_linear=0
shrinkage=0.05


Tree=15
num_leaves=31
num_cat=0
split_feature=6 18 6 2 16 14 19 13 14 6 1 14 18 4 14 18 16 19 16 14 18 8 18 18 18 14 19 14 13 14
split_gain=33124.8 23665.7 2795.51 1575.74 1076.06 1352.27 1554.77 794.912 770.48 856.944 706.466 739.949 537.254 536.326 536.008 1090.08 661.362 659.68 1042.15 457.036 451.287 508.827 425.731 423.373 367.622 716.767 607.411 366.727 339.461 349.32
threshold=1.0000000180025095e-35 1410.0000000000002 1.5000000000000002 1109.4650000000004 19.500000000000004 18.500000000000004 4.5000000000000009 72227.005000000019 8.5000000000000018 3.5000000000000004 6583.5000000000009 35.500000000000007 11.500000000000002 4603.6550000000007 50.500000000000007 3.5000000000000004 26.500000000000004 4.5000000000000009 33.500000000000007 46.500000000000007 1.5000000000000002 5.5000000000000009 2.5000000000000004 1.5000000000000002 3.5000000000000004 32.500000000000007 8.5000000000000018 1.5000000000000002 5018.9400000000014 34.500000000000007
decision_type=2 2 2 2 2 2 2 2 2 2 2 2 2 2 2 2 2 2 2 2 2 2 2 2 2 2 2 2 2 2
left_child=3 2 19 4 20 -6 12 13 9 23 14 -12 -7 28 24 16 -16 18 -17 -2 21 -1 -8 27 25 -9 -27 -4 -5 -30
right_child=1 -3 8 7 5 6 22 10 -10 -11 11 -13 -14 -15 15 17 -18 -19 -20 -21 -22 -23 -24 -25 -26 26 -28 -29 29 -31
leaf_value=0.080289811008132511 0.05058092614883547 0.05098058370862793 0.073318398719474015 0.082934767537449508 0.071313492941274106 -0.015652357321065676 -0.043282260830337566 0.076290525454426619 -0.048469886801710375 -0.051192234297128131 0.059846155560672909 -0.015489576694077248 0.080254855505686284 0.08505757078804127 0.092880474528558854 0.073531656246825214 -0.050399383558364978 0.081991214629218781 0.019072632451363043 -0.035795018927686731 0.080461229097289866 -0.0041270797740486564 0.071358204657032354 0.051200151788725015 0.086191554560065553 -0.003067848554611341 0.095249791340083545 -0.043358971363058135 0.07558258443891383 0.057339376690913393
leaf_weight=356.9223217330873 1028.1504417695105 26808.553695678711 86.300867941230536 11699.854007186368 2657.8586621265858 1656.8540992550552 86.613746747374535 15797.352318093181 8824.1660561002791 738.59288273751736 1643.9605147093534 406.54576040804386 160.13440258428454 55881.86534052901 107.98367684334517 2332.3785459324718 316.89591482654214 4137.9070680998266 1409.2615585774183 179.94985806569457 5202.7948978114873 357.09920655190945 1245.9286655187607 514.34315304458141 9931.17391705513 526.38876013457775 223.92049449682236 306.61612319946289 12202.804085917771 3342.7813861891627
leaf_count=259 5878 56510 639 4352 2464 19704 732 8954 387774 32588 1702 2038 650 16618 74 2121 2207 1842 5043 5488 2932 2326 2546 5006 3529 1953 63 8153 6558 4675
internal_value=0.0659082 0.025103 -0.0343022 0.0778341 0.0603388 0.0450491 0.0228848 0.079544 -0.0426121 -0.0112057 0.0734295 0.0449096 -0.00719989 0.0822533 0.0751108 0.0640276 -0.0139846 0.0682341 0.0530201 0.037715 0.0753457 0.0380709 0.0639067 0.0213471 0.0785867 0.0740227 0.0262738 -0.0177318 0.0765015 0.0716597
internal_weight=170172 38486.7 11678.1 131685 11724.2 5807.39 3149.53 119961 10470 1645.85 36833.8 2050.51 1816.99 83127.3 34783.3 8304.43 424.88 7879.55 3741.64 1208.1 5916.82 714.022 1332.54 907.26 26478.8 16547.7 750.309 392.917 27245.4 15545.6
internal_count=595378 502036 445526 93342 31613 26096 23632 61729 434160 46386 29526 3740 20354 32203 25786 11287 2281 9006 7164 11366 5517 2585 3278 13798 14499 10970 2016 8792 15585 11233
is_linear=0
shrinkage=0.05


Tree=16
num_leaves=31
num_cat=0
split_feature=6 18 6 2 16 19 14 13 14 6 1 14 4 19 16 14 18 18 14 12 14 13 15 12 2 15 18 16 2 16
split_gain=30751.6 21154.2 2627.64 1506.42 1004.26 1087.21 944.606 782.07 760.576 806.249 685.832 690.31 538.885 502.485 1113.5 1735.24 1086.6 443.491 723.696 442.603 433.663 389.133 350.704 451.256 280.864 252.046 243.679 281.038 228.454 227.755
threshold=1.0000000180025095e-35 1410.0000000000002 1.5000000000000002 1109.4650000000004 32.500000000000007 4.5000000000000009 29.500000000000004 66539.430000000022 8.5000000000000018 3.5000000000000004 6583.5000000000009 35.500000000000007 4898.9750000000013 4.5000000000000009 28.500000000000004 27.500000000000004 3.5000000000000004 1.5000000000000002 2.5000000000000004 24.500000000000004 5.5000000000000009 27209.065000000002 10462.173857142858 11.500000000000002 42.76170650000001 3391.6690372872872 14.500000000000002 8.5000000000000018 0.022297000000000004 17.500000000000004
decision_type=2 2 2 2 2 2 2 2 2 2 2 2 2 2 2 2 2 2 2 2 2 2 2 2 2 2 2 2 2 2
left_child=3 2 20 4 17 6 -6 12 9 21 13 -12 22 14 -9 -16 -17 18 -1 -15 -2 -4 23 -5 -19 -20 27 -13 -22 -26
right_child=1 -3 8 7 5 -7 -8 10 -10 -11 11 26 -14 19 15 16 -18 24 25 -21 28 -23 -24 -25 29 -27 -28 -29 -30 -31
leaf_value=0.060113218146667091 0.062596543638349961 0.047621817015083612 -0.025678875401090585 0.070138671805799607 0.053454812504542884 0.059459306208383203 -0.029398337692040241 0.075988314455573622 -0.048284656601198628 -0.051132765807760605 0.056875098657019056 0.08016921029441075 0.082120162922064921 0.078860891037359826 0.077285522801742376 -0.031391704274183307 0.038753704540094962 -0.003051722441868663 -0.062989023492028715 0.046002556340863039 -0.053297942802060398 0.043269036773599195 0.07912272023823369 0.03020710889510549 0.078561028629097598 0.072562408010090632 0.12424274957183584 -0.042526409285167523 0.021127499623082441 0.059828094296888117
leaf_weight=713.72273024357855 666.65125325135887 27252.40251159668 308.60042168386281 13583.648629596457 554.03993740491569 1886.6512756943703 907.4751029163599 9235.0598210953176 8425.2655566614121 703.36769796907902 1714.7642602846026 54.265667771920562 52297.644469434395 19473.011046156287 2751.4267906025052 711.47292592749 2464.4892980307341 126.02614204026759 201.10177335888147 1081.7915276587009 136.91224620305002 607.4829717874527 14319.9854388237 746.38205803930759 4805.9468652009964 41.343691311776638 29.27677646279335 333.4746800083667 417.61862182244658 2449.5375518798828
leaf_count=1323 1132 56510 8112 9050 1177 3725 14818 4874 387774 32588 1774 31 15351 7674 1386 3903 6523 1224 1919 2029 3511 5686 5929 1154 2342 37 14 2037 6723 5048
internal_value=0.0630534 0.0237978 -0.033833 0.0746416 0.0575124 0.034382 0.00201013 0.0763266 -0.0422526 -0.0108706 0.0703937 0.0428439 0.0791006 0.072038 0.065133 0.0482201 0.0230399 0.0668008 0.0347606 0.0771316 0.0354215 0.0200426 0.0735888 0.0680588 0.0709512 -0.0398737 -0.0148522 -0.0253547 0.00275205 0.0722366
internal_weight=169001 38518.3 11265.9 130483 11685.8 3348.17 1461.52 118797 10044.7 1619.45 37849 2131.78 80947.7 35717.3 15162.4 5927.39 3175.96 8337.68 956.168 20554.8 1221.18 916.083 28650 14330 7381.51 242.445 417.017 387.74 554.531 7255.48
internal_count=595378 502036 445526 93342 31613 19720 15995 61729 434160 46386 30245 3856 31484 26389 16686 11812 10426 11893 3279 9703 11366 13798 16133 10204 8614 1956 2082 2068 10234 7390
is_linear=0
shrinkage=0.05


Tree=17
num_leaves=31
num_cat=0
split_feature=6 18 6 2 14 16 19 13 14 6 15 14 18 16 19 16 18 18 0 0 12 1 19 2 4 4 0 14 18 16
split_gain=28688.9 18960.8 2471.92 1470.7 1064.44 1092.46 1237.95 825.596 752.079 759.287 668.004 599.172 1521 870.811 711.279 950.754 738.155 543.727 514.936 729.006 479.932 445.97 439.683 395.227 365.476 362.042 347.068 325.934 904.718 553.57
threshold=1.0000000180025095e-35 1410.0000000000002 1.5000000000000002 1715.7350000000004 50.500000000000007 21.500000000000004 6.5000000000000009 78612.700000000012 8.5000000000000018 3.5000000000000004 4615.5965199931661 39.500000000000007 3.5000000000000004 26.500000000000004 4.5000000000000009 16.500000000000004 12.500000000000002 13.500000000000002 6125.5000000000009 15223.500000000002 24.500000000000004 317.50000000000006 9.5000000000000018 0.071484000000000006 4898.9750000000013 1216.8100000000002 17317.500000000004 13.500000000000002 2.5000000000000004 16.500000000000004
decision_type=2 2 2 2 2 2 2 2 2 2 2 2 2 2 2 2 2 2 2 2 2 2 2 2 2 2 2 2 2 2
left_child=3 2 23 4 10 -6 17 24 9 25 18 20 13 -13 15 -14 -17 21 27 -20 -9 -7 -15 -2 -5 -4 -21 -1 29 -29
right_child=1 -3 8 7 5 6 -8 11 -10 -11 -12 12 14 22 -16 16 -18 -19 19 26 -22 -23 -24 -25 -26 -27 -28 28 -30 -31
leaf_value=0.065884302947042159 -0.0099559284010068486 0.044582294072762527 -0.034936511120991449 0.071578638088839297 0.072300548048444657 0.024069146895577549 0.076844763590862411 0.073211765412885141 -0.048096578719006487 -0.051076329923661269 0.074221984022064466 0.075073006654166552 0.07958220090697031 -0.049916004200336789 0.076357353853901619 0.01910235484185098 0.083528961429450155 0.082243135262303479 -0.05995999129236125 0.055017901864743951 0.038044297958359237 -0.037857063050121265 0.08439009629936621 0.051995592093174628 0.079032439113703265 0.036991481578707845 -0.056144146638051388 0.078303489834402287 0.061744887160503276 -0.054891027313403798
leaf_weight=3989.8674509339035 367.39336383342743 27644.332221984863 234.1394401602447 23751.88775899075 1118.2951764259487 405.17079445719719 535.75300650298595 23080.932057082653 8044.8664758615196 669.78466603904963 7611.3182559013367 244.81987615115941 1605.5269205290824 575.9845768827945 4915.049617761746 2309.5670208763331 550.57157912477851 141.87342279218137 226.16205364465714 644.02469976246357 1012.7130662202835 1029.3683246523142 68.147832101210952 860.24292004108429 53460.286403873935 691.99250853061676 78.809196472167969 102.55251837149262 1187.0740532055497 325.93673064187169
leaf_count=3055 5666 56510 7484 12681 850 3442 502 11221 387774 32588 5737 235 630 3832 2170 7370 404 379 1711 1102 2007 13094 33 5700 16300 6314 1271 50 2298 2968
internal_value=0.0604537 0.0225846 -0.0333675 0.0717619 0.0582399 0.0323404 0.0111834 0.0738702 -0.0418766 -0.0105221 0.0641462 0.0674231 0.0573103 -0.00519767 0.0632338 0.0487896 0.0315044 -0.011132 0.0524458 0.0183853 0.0717336 -0.0203666 -0.0357067 0.0334554 0.0767395 0.0188071 0.0428981 0.0582122 0.0392649 -0.0230129
internal_weight=167484 38512.8 10868.4 128972 17396.2 3230.46 2112.17 111575 9640.78 1595.92 14165.7 34363.3 10269.7 888.952 9380.72 4465.67 2860.14 1576.41 6554.43 948.996 24093.6 1434.54 644.132 1227.64 77212.2 926.132 722.834 5605.43 1615.56 428.489
internal_count=595378 502036 445526 93342 36459 18267 17417 56883 434160 46386 18192 27902 14674 4100 10574 8404 7774 16915 12455 4084 13228 16536 3865 11366 28981 13798 2373 8371 5316 3018
is_linear=0
shrinkage=0.05


Tree=18
num_leaves=31
num_cat=0
split_feature=6 18 6 2 2 13 16 19 14 14 6 1 10 14 18 19 18 10 18 17 16 12 14 2 0 10 10 18 18 14
split_gain=26895 17033.9 2327.46 1426.21 989.663 851.561 790.849 1222.33 1437.19 742.89 715.788 631.019 603.269 490.689 615.862 639.621 489.188 563.03 1436.83 455.942 454.894 382.007 379.972 352.753 334.828 424.578 318.883 434.603 356.052 445.132
threshold=1.0000000180025095e-35 1410.0000000000002 1.5000000000000002 2097.2700000000004 53.375000000000007 66539.430000000022 19.500000000000004 3.5000000000000004 12.500000000000002 8.5000000000000018 3.5000000000000004 5342.5000000000009 2.5000000000000004 109.50000000000001 9.5000000000000018 6.5000000000000009 7.5000000000000009 3.5000000000000004 2.5000000000000004 380.89241520467846 14.500000000000002 24.500000000000004 5.5000000000000009 300.64500000000004 6036.5000000000009 1.5000000000000002 9.5000000000000018 10.500000000000002 4.5000000000000009 16.500000000000004
decision_type=2 2 2 2 2 2 2 2 2 2 2 2 2 2 2 2 2 2 2 2 2 2 2 2 2 2 2 2 2 2
left_child=3 2 22 4 -1 -5 -6 8 -8 10 24 13 -13 16 15 20 17 21 -19 23 -15 -7 -2 -10 25 -4 28 -28 29 -9
right_child=1 -3 9 5 6 11 7 26 19 -11 -12 12 -14 14 -16 -17 -18 18 -20 -21 -22 -23 -24 -25 -26 -27 27 -29 -30 -31
leaf_value=-0.019365371619150661 0.056782592207659632 0.041816214158051798 0.082423004078561721 0.074664296997811755 0.068380002324070266 0.072723032561716014 0.070363373271302196 0.065020784209655472 -0.025727690474408205 -0.047905127186888427 -0.051022758983044147 0.060526030374536743 0.0063410787759802627 0.072148140703330976 0.065251234345216208 0.074903782294411095 0.081999392931921378 -0.014390011774903802 0.061215398258606404 -0.020305559908441601 -0.038805365791693365 0.038148035121002746 0.0012002679588064265 0.10740154280056627 -0.015911756102969254 -0.0091455430665349797 0.0063270391063996014 0.074908316921128412 0.082632653491470018 0.03070305652575191
leaf_weight=414.28077891096473 674.86529210209846 27990.004867553711 304.39504427090287 70745.002992630005 10337.56183745712 16013.338025065139 856.23335655592382 3525.6847800016403 78.956846978515387 7682.359150737524 637.77088725566864 1285.8592753857374 855.40097977221012 114.20921729505062 1355.4447321686894 271.94886684417725 5516.8127197083086 679.54383995570242 8350.7073745783418 1390.701208235696 483.27235176973045 840.83879047632217 564.82601496577263 134.55132573470473 413.54070567712188 216.72184976935387 613.11679489910603 370.65941838920116 1667.1210054755211 1290.880774371326
leaf_count=8191 1132 56510 2015 25745 7335 6524 597 2788 939 387774 32588 1056 2799 58 1118 123 1513 2478 8876 11467 2495 1588 10234 169 8516 3267 2817 367 932 3367
internal_value=0.0580712 0.0214475 -0.0328782 0.0691525 0.0571365 0.0714854 0.0587004 0.0486214 0.018057 -0.0414962 -0.0101842 0.0651979 0.03888 0.0668737 0.0441826 0.0113366 0.0684815 0.0656004 0.0555259 -0.00986113 -0.0175965 0.0709981 0.0314583 0.0581694 0.0176824 0.0443415 0.058692 0.0321666 0.0627167 0.0558233
internal_weight=165677 38484.5 10494.5 127192 20679.7 106512 20265.5 9927.91 2460.44 9254.79 1572.43 35767.4 2141.26 33626.1 2224.88 869.43 31401.2 25884.4 9030.25 1604.21 597.482 16854.2 1239.69 213.508 934.658 521.117 7467.46 983.776 6483.69 4816.57
internal_count=595378 502036 445526 93342 38969 54373 30778 23443 13172 434160 46386 28628 3855 24773 3794 2676 20979 19466 11354 12575 2553 8112 11366 1108 13798 5282 10271 3184 7087 6155
is_linear=0
shrinkage=0.05


Tree=19
num_leaves=31
num_cat=0
split_feature=6 18 6 2 16 14 19 13 14 18 6 1 19 16 14 18 14 15 12 12 18 14 14 15 15 0 0 18 14 10
split_gain=25276.5 15336.7 2194.09 1398.72 943.248 1383.93 1792.73 862.198 731.196 694.869 675.308 620.651 614.158 1307.12 1704.88 1085.98 811.464 482.774 459.161 450.055 443.015 354.142 347.346 339.54 335.036 391.586 619.639 319.202 302.739 292.621
threshold=1.0000000180025095e-35 1410.0000000000002 1.5000000000000002 2351.3650000000002 19.500000000000004 19.500000000000004 4.5000000000000009 66539.430000000022 8.5000000000000018 11.500000000000002 3.5000000000000004 317.50000000000006 4.5000000000000009 18.500000000000004 25.500000000000004 3.5000000000000004 75.500000000000014 6965.1712222222222 25.500000000000004 15.500000000000002 2.5000000000000004 46.500000000000007 61.500000000000007 173585.2770679013 2972.1868460388646 6125.5000000000009 15223.500000000002 1.5000000000000002 1.5000000000000002 2.5000000000000004
decision_type=2 2 2 2 2 2 2 2 2 2 2 2 2 2 2 2 2 2 2 2 2 2 2 2 2 2 2 2 2 2
left_child=3 2 21 4 24 19 9 -5 10 11 27 -7 13 -9 -15 17 -17 -16 -14 -6 -8 -2 -13 -21 25 -1 -27 28 -4 -29
right_child=1 -3 8 7 5 6 20 12 -10 -11 -12 22 18 14 15 16 -18 -19 -20 23 -22 -23 -24 -25 -26 26 -28 29 -30 -31
leaf_value=0.060918260323544172 0.040648216634889947 0.039286614396673046 0.060408169343395726 0.072538340202086923 0.069150609222459442 0.035816208185961339 -0.030729411537268506 0.071280587238504653 -0.047709435789659249 0.069227516052418225 -0.050971910527215905 -0.0046736327555562483 0.070396430894111559 0.065960655302932408 0.075284109410174299 0.057493305364471795 0.0086179444959496847 -0.037726616366806104 0.034772507883793179 0.0093851971514054312 0.063564260410778936 -0.035585106166369999 -0.04755646246966172 0.077611154749581968 0.07227688071652448 -0.062824517757356368 0.048202535463966453 0.060081347243002931 -0.043024480690698058 -0.02865154090230489
leaf_weight=3705.0662317145616 1066.8553486112505 28294.450645446777 93.169535113498569 67468.983154773712 4672.1615272108465 673.44868852943182 131.24879704415798 6982.2816095091403 7336.8835942391306 345.77647839672863 607.25641188770533 1379.3322323001921 18841.328751474619 3903.1412758622319 105.846106197685 1762.3515183143318 1639.0660394970328 881.82001596689224 950.14144356548786 605.85009577870369 2445.7640631347895 177.72329900227487 718.02421718090773 260.88846299052238 7124.1669381260872 171.21780055761337 472.35929223895073 434.0404876023531 293.92228317260742 118.21988120675087
leaf_count=2709 5878 56510 639 24534 2902 3936 826 2941 387774 794 32588 9227 8144 2178 162 2663 5536 4842 1798 1327 3227 5488 9843 91 2938 1366 1358 3088 8153 1918
internal_value=0.0558627 0.0203869 -0.0324126 0.0667464 0.0555175 0.045218 0.0279076 0.0692329 -0.0411233 0.00239507 -0.00987976 -0.00594513 0.0628731 0.0553408 0.0419191 0.0205394 0.0339414 -0.0256155 0.0686862 0.0630119 0.0587618 0.0297623 -0.0193545 0.0299212 0.0656013 0.054665 0.0186648 0.0166848 -0.0181292 0.0410867
internal_weight=163663 38422.5 10128.1 125240 22705.3 11232.5 5693.59 102535 8883.49 3116.58 1546.61 2770.81 35066 15274.5 8292.22 4389.08 3401.42 987.666 19791.5 5538.9 2577.01 1244.58 2097.36 866.739 11472.8 4348.64 643.577 939.352 387.092 552.26
internal_count=595378 502036 445526 93342 40544 32173 27853 52798 434160 23800 46386 23006 28264 18322 15381 13203 8199 5004 9942 4320 4053 11366 19070 1418 8371 5433 2724 13798 8792 5006
is_linear=0
shrinkage=0.05


Tree=20
num_leaves=31
num_cat=0
split_feature=6 18 6 2 12 19 14 18 14 18 12 14 2 18 6 16 10 18 14 18 18 15 10 17 8 2 16 19 14 18
split_gain=23859.8 13834.5 2069.62 1385.3 1018.28 1725.36 1767.87 1146.39 982.753 979.672 718.389 718.29 709.209 646.871 637.348 496.628 538.936 470.864 683.661 384.131 382.269 362.888 417.773 353.184 348.899 338.379 336.082 329.001 548.463 1586.15
threshold=1.0000000180025095e-35 1410.0000000000002 1.5000000000000002 742.96500000000003 2.5000000000000004 3.5000000000000004 19.500000000000004 2.5000000000000004 77.500000000000014 12.500000000000002 14.500000000000002 8.5000000000000018 53.375000000000007 6.5000000000000009 3.5000000000000004 19.500000000000004 9.5000000000000018 4.5000000000000009 16.500000000000004 2.5000000000000004 1.5000000000000002 157155.31871731012 1.5000000000000002 2833.3513971631205 5.5000000000000009 0.022297000000000004 18.500000000000004 8.5000000000000018 26.500000000000004 2.5000000000000004
decision_type=2 2 2 2 2 2 2 2 2 2 2 2 2 2 2 2 2 2 2 2 2 2 2 2 2 2 2 2 2 2
left_child=3 2 25 12 -5 6 -6 23 13 -10 27 14 -1 -9 -4 20 17 18 -17 -20 24 22 -12 -8 -14 -2 -25 28 -7 -30
right_child=1 -3 11 4 5 10 7 8 9 -11 21 -13 15 -15 -16 16 -18 -19 19 -21 -22 -23 -24 26 -26 -27 -28 -29 29 -31
leaf_value=-0.019792491169004341 -0.030525706005897203 0.036963139270649481 0.015761868948902431 0.071811756862055598 0.065475472633697226 0.069051243363276352 0.032841352638702546 0.036789737151780709 -0.020499659483646161 0.06465898458708981 0.013882541737817559 -0.047509661985676577 0.067706013431178658 0.085767218008228077 -0.050923637432812287 0.053419365285303513 -0.0088807412166602342 0.079733280141681295 -0.04818556900712373 0.02114625886297895 0.067116437646901603 0.064976840152170159 0.057752717750162233 0.072169602848089986 -0.015830825359091874 0.039615085425677779 -0.066981063628398327 0.072280422085925777 -0.034841351824542705 0.059485300899994903
leaf_weight=410.79408031143248 205.76252511888742 28562.157379150391 942.21495525725186 44987.367712706327 5408.8577866833657 22114.970328422263 148.96700518578291 2946.1573727875948 1253.4901679158211 462.27470272779465 1335.6851693335921 7007.6956380140036 220.9026000816375 874.20476701110601 578.17392039299011 1501.8597514349967 594.21313771605492 683.65891765058041 297.02644368261099 610.21214512735605 3180.4244322292507 1289.3030952811241 914.04789283126593 47.719128249213099 287.88631078600883 1046.374544583261 478.58744144625962 19534.100156711414 461.46325518749654 13022.865663027391
leaf_count=8191 3835 56510 13798 14435 2837 8765 382 6588 6576 484 2809 387774 162 391 32588 1641 6324 1231 2790 3610 1837 774 931 33 2007 7531 3041 6246 1523 9734
internal_value=0.0538288 0.0193883 -0.0319373 0.064559 0.0659377 0.0621784 0.0445763 0.0263774 0.0338794 0.00244444 0.0656645 -0.0407506 0.0441481 0.0479971 -0.00959731 0.0477091 0.0347312 0.0431104 0.0327175 -0.00155272 0.060679 0.0438273 0.0317066 -0.0351267 0.0204386 0.0280889 -0.0543646 0.0670662 0.0642051 0.0562572
internal_weight=161409 38342.4 9780.22 123067 115280 70292.7 11620.3 6211.4 5536.13 1715.76 58672.4 8528.08 7786.98 3820.36 1520.39 7376.18 3686.97 3092.76 2409.1 907.239 3689.21 3539.04 2249.73 675.274 508.789 1252.14 526.307 55133.4 35599.3 13484.3
internal_count=595378 502036 445526 93342 65549 51114 20332 17495 14039 7060 30782 434160 27793 6979 46386 19602 15596 9272 8041 6400 4006 4514 3740 3456 2169 11366 3074 26268 20022 11257
is_linear=0
shrinkage=0.05


Tree=21
num_leaves=31
num_cat=0
split_feature=6 18 14 4 6 13 16 19 14 14 18 19 16 16 18 16 8 18 15 15 2 18 14 18 0 0 14 19 3 16
split_gain=22604.1 12496 1953.86 1387.27 1062.93 918.65 889.898 1309.73 1538.57 587.224 1157.61 669.338 902.633 637.058 621.254 583.377 579.421 410.974 393.875 390.581 361.551 355.727 356.595 760.649 352.787 617.83 349.598 321.452 318.057 311.905
threshold=1.0000000180025095e-35 1410.0000000000002 8.5000000000000018 2874.1350000000007 3.5000000000000004 78612.700000000012 19.500000000000004 3.5000000000000004 13.500000000000002 46.500000000000007 3.5000000000000004 4.5000000000000009 26.500000000000004 26.500000000000004 12.500000000000002 12.500000000000002 4.5000000000000009 1.5000000000000002 12372.116785714288 4165.4199632653063 114.64000000000001 4.5000000000000009 28.500000000000004 2.5000000000000004 6125.5000000000009 15223.500000000002 3.5000000000000004 19.500000000000004 12.500000000000002 32.500000000000007
decision_type=2 2 2 2 2 2 2 2 2 2 2 2 2 2 2 2 2 2 2 2 2 2 2 2 2 2 2 2 2 2
left_child=3 2 4 6 16 -5 19 8 -8 21 13 12 -12 -11 -14 -4 -2 -18 -10 24 -9 22 27 29 -1 -26 -19 -7 -22 -24
right_child=1 -3 15 5 -6 9 7 20 18 10 11 -13 14 -15 -16 -17 17 26 -20 -21 28 -23 23 -25 25 -27 -28 -29 -30 -31
leaf_value=0.056385632979490653 0.077506646714345248 0.034820813406728296 0.017533556780949189 0.068849048375256405 -0.050877802724313685 0.063483764246987942 0.062624453902409893 -0.00081633633852749507 -0.029430415557660773 0.068920058062220402 0.062916428573428551 0.066161048152403354 0.0010679332902153559 -0.060616322344447283 0.072034548412556909 -0.047340479362354693 -0.023794740121758834 0.070386324181711021 0.01438573305474012 0.06866641110579047 0.055285848485889591 0.074146412594416969 0.041753025889713136 0.052982902110981916 -0.06332458056607039 0.043967314988200244 0.0013917166973364059 0.034661358111484436 -0.006785298359814969 -0.063521613199790952
leaf_weight=4726.6684702876955 452.96398432552814 28797.140129089355 364.97812758013606 63142.439353942871 550.45904058218002 14999.730615850538 1117.2698788791895 311.8323562014848 1163.5803455114365 127.95127011835575 1769.2517871242017 3923.053897049278 1670.9718310702592 367.61227532848716 378.18806947022676 6857.9047108478844 496.1345811188221 359.04244376718998 917.18290789425373 7805.2181100845337 9255.7050835378468 5082.1591777801514 102.42696135677397 1629.63818359375 172.9311636313796 598.71618050336838 375.74735260009766 1034.0667195357382 211.08586075343192 224.72171080671251
leaf_count=3447 368 56510 12767 23486 32588 7415 768 4201 12369 114 1264 1932 6143 2778 280 385067 9324 1483 6078 3082 9989 1487 191 1806 1399 1487 3929 1744 631 1251
internal_value=0.0519373 0.0184443 -0.0314221 0.0625496 0.00943935 0.0653767 0.0523888 0.0430728 0.0152963 0.0583741 0.0469138 0.0516563 0.0367541 -0.0271709 0.0141654 -0.0440623 0.0291569 0.0113648 -0.0101166 0.0614758 0.0521569 0.0624655 0.0591658 0.0390154 0.0512683 0.0199225 0.0351047 0.0616249 0.0539018 -0.0305612
internal_weight=158987 38254.4 9457.23 120732 2234.35 94452.2 26280.2 12976.7 3198.03 31309.8 8237.03 7741.47 3818.41 495.564 2049.16 7222.88 1683.89 1230.92 2080.76 13303.5 9778.62 23072.7 17990.6 1956.79 5498.32 771.647 734.79 16033.8 9466.79 327.149
internal_count=595378 502036 445526 93342 47692 49891 43451 34036 19215 26405 12511 9619 7687 2892 6423 397834 15104 14736 18447 9415 14821 13894 12407 3248 6333 2886 5412 9159 10620 1442
is_linear=0
shrinkage=0.05


Tree=22
num_leaves=31
num_cat=0
split_feature=6 18 6 12 19 14 18 14 18 12 14 6 19 19 14 18 18 15 14 0 10 19 16 2 0 0 17 1 10 2
split_gain=21429.3 11308.1 1873.74 1390.44 2421.96 2114.31 1211.31 1024.31 1164.67 862.186 700.572 587.501 533.584 456.731 765.116 1620.76 525.136 447.264 446.242 426.335 413.907 332.526 301.939 293.352 265.255 1223.87 262.666 254.422 252.055 251.637
threshold=1.0000000180025095e-35 1410.0000000000002 1.5000000000000002 2.5000000000000004 3.5000000000000004 19.500000000000004 9.5000000000000018 85.500000000000014 2.5000000000000004 14.500000000000002 11.500000000000002 3.5000000000000004 2.5000000000000004 8.5000000000000018 29.500000000000004 2.5000000000000004 11.500000000000002 157155.31871731012 145.50000000000003 17317.500000000004 1.5000000000000002 3.5000000000000004 33.500000000000007 0.071484000000000006 6125.5000000000009 15223.500000000002 2833.3513971631205 78.500000000000014 1.5000000000000002 2.7750000000000004
decision_type=2 2 2 2 2 2 2 2 2 2 2 2 2 2 2 2 2 2 2 2 2 2 2 2 2 2 2 2 2 2
left_child=3 2 23 19 5 -5 7 8 26 13 11 21 -10 14 -6 22 -17 20 -8 24 -11 -4 -16 -2 -1 -26 -7 -20 -15 -25
right_child=1 -3 10 4 9 6 18 -9 12 17 -12 -13 -14 28 15 16 -18 -19 27 -21 -22 -23 -24 29 25 -27 -28 -29 -30 -31
leaf_value=0.068646910942565656 -0.011705300559652673 0.032838756180914197 -0.016071253192523848 0.059070983317854424 0.064182125064742704 0.0071269369239977398 0.077941981701613039 -0.038250280197132676 -0.0069546607440862124 0.0093052146257478884 -0.047372100261282531 -0.050836654373847913 0.039177770291648172 0.059233527089766772 0.040480967134325363 0.047036172314855546 0.072032347942775146 0.061169559968085097 0.056104983146176936 -0.056149162177106027 0.050618655549795846 0.041613626253064973 -0.067452930546294976 0.05056132253569439 -0.063362339862311587 0.062875625496936205 -0.054503800250866333 -0.01885405895098562 0.071860739487700553 -0.038579237519555179
leaf_weight=42741.516441741958 364.01378095149994 29002.983985900879 495.22063013538718 5778.7224453985691 23961.496733205393 246.4415562544018 988.79228074662387 996.13207233697176 794.08889722824097 1547.1103600487113 6323.4455149695277 562.90349170565605 2975.3376159667969 5487.0806160978973 79.852553492411971 9878.7089367359877 2668.8492653053254 1342.0370472073555 222.76459675095975 69.525289058685303 996.92467690445483 504.17235423251987 343.62786276265979 792.59845352172852 211.71314144134521 2061.6654844284058 579.19303476810455 230.15583665110171 14126.664190337062 87.956296563148499
leaf_count=14593 5666 56510 10984 3847 11334 1925 682 9244 4170 3211 382810 34912 8923 2881 150 13743 1018 823 418 1008 1132 5454 2373 4590 1484 1039 4280 1114 3950 1110
internal_value=0.0501577 0.0175619 -0.030966 0.0606623 0.0564099 0.036663 0.018251 0.00771397 0.0176782 0.0605963 -0.0399645 -0.00998178 0.0294592 0.0621619 0.0588872 0.0491059 0.0523528 0.0378148 0.0591153 0.0675706 0.0254946 0.0130295 -0.0471006 0.0260497 0.0677617 0.0511195 -0.0361078 0.0180138 0.0683282 0.0416573
internal_weight=156462 38133.3 9130.31 118328 73244 12811.6 7032.91 5591.19 4595.06 60432.4 7885.74 1562.3 3769.43 56546.3 36932.5 12971 12547.6 3886.07 1441.71 45084.4 2544.04 999.393 423.48 1244.57 45014.9 2273.38 825.635 452.92 19613.7 880.555
internal_count=595378 502036 445526 93342 75218 34603 30756 28542 19298 40615 434160 51350 13093 35449 28618 17284 14761 5166 2214 18124 4343 16438 2523 11366 17116 2523 6205 1532 6831 5700
is_linear=0
shrinkage=0.05


Tree=23
num_leaves=31
num_cat=0
split_feature=6 18 14 2 6 13 16 14 19 1 16 10 8 18 4 19 16 14 18 12 13 18 18 1 14 19 14 6 19 13
split_gain=20376.5 10243.7 1800.9 1428.3 921.629 874.329 867.246 1075.32 1138.18 627.174 571.21 529.451 513.275 486.702 463.322 457.902 935.934 1164.71 764.559 426.249 386.35 381.008 361.699 308.291 301.041 299.705 502.037 295.925 364.403 547.094
threshold=1.0000000180025095e-35 1410.0000000000002 8.5000000000000018 1715.7350000000004 3.5000000000000004 66539.430000000022 19.500000000000004 19.500000000000004 4.5000000000000009 6583.5000000000009 12.500000000000002 2.5000000000000004 4.5000000000000009 11.500000000000002 4898.9750000000013 4.5000000000000009 18.500000000000004 25.500000000000004 11.500000000000002 24.500000000000004 8354.9450000000015 2.5000000000000004 1.5000000000000002 277.50000000000006 3.5000000000000004 3.5000000000000004 21.500000000000004 3.5000000000000004 2.5000000000000004 22579.395
decision_type=2 2 2 2 2 2 2 2 2 2 2 2 2 2 2 2 2 2 2 2 2 2 2 2 2 2 2 2 2 2
left_child=3 2 4 6 12 14 -1 -8 13 15 27 -11 -2 23 20 16 -7 -18 -19 -17 -5 -10 -14 -9 -24 26 -22 28 -4 -30
right_child=1 -3 10 5 -6 9 7 8 21 11 -12 -13 22 -15 -16 19 17 18 -20 -21 25 -23 24 -25 -26 -27 -28 -29 29 -31
leaf_value=0.056780997470468789 0.072192897805446951 0.030999372108841374 -0.0045389801901291917 0.064300771974522594 -0.050792946768115459 0.063909569835326627 0.052691373810945102 0.023339755977090135 -0.047682186469365222 0.048401124881351287 -0.046936055993785711 -0.0045136639435306566 -0.02344820796107154 0.059215199751673255 0.067339456577730272 0.063418762292654363 0.059035952987846266 0.0094991706739410847 0.065882190733206239 0.029349069040784222 0.05807581782431584 0.051392945887696974 0.064122173955107276 -0.023378845702284372 0.00052476431332670306 0.054426305393689089 -0.0023656937610662234 -0.050867103864084606 0.063776613642672883 0.35509367631911781
leaf_weight=8090.2196880187839 451.42265775799751 29182.863227844238 143.88652391079813 11823.120443288237 498.88588094711304 6127.5457011908293 3896.3437747582793 443.87292012013495 102.73753202706575 1179.2592010349035 6282.0295898830518 789.0242515951395 490.45780745148659 254.83597523160279 45175.371443804353 16849.106812283397 3442.3962475527078 3363.1982478220016 732.13473292812705 970.95478068292141 716.7154534868896 1749.4172051474452 366.73217308521271 1727.0769157260656 377.72696304321289 7725.1090638190508 659.87807363644242 109.62116584181786 88.209939949214458 19.719328083097935
leaf_count=7033 368 56510 4129 5015 32588 2712 3449 3241 791 1026 385067 2688 9324 739 15330 7452 1941 11055 544 1795 429 2899 1483 18307 3929 4952 1944 6545 1077 1016
internal_value=0.0484875 0.0167228 -0.0304679 0.0589127 0.0089067 0.061157 0.0451755 0.0336893 0.0163822 0.0545704 -0.0434193 0.0271892 0.0265682 -0.00615348 0.0644905 0.0562821 0.0493965 0.0375985 0.0195789 0.0615624 0.0583397 0.0458973 0.00989016 -0.0138267 0.0318538 0.0505962 0.0291028 0.0177036 0.047554 0.117002
internal_weight=153830 38011.6 8828.69 115818 2185.23 99553.8 16264.5 8174.28 4277.94 33453.6 6643.47 1968.28 1686.34 2425.79 66100.2 31485.3 13665.3 7537.73 4095.33 17820.1 20924.8 1852.15 1234.92 2170.95 744.459 9101.7 1376.59 361.437 251.816 107.929
internal_count=595378 502036 445526 93342 47692 56883 36459 29426 25977 29213 397834 3714 15104 22287 27670 25499 16252 13540 11599 9247 12340 3690 14736 21548 5412 7325 2373 12767 6222 2093
is_linear=0
shrinkage=0.05


Tree=24
num_leaves=31
num_cat=0
split_feature=6 18 14 12 19 14 16 6 12 18 19 16 18 14 18 19 14 18 4 15 0 10 18 18 15 16 6 0 0 19
split_gain=19385 9295.66 1719.21 1431.09 2305.68 1909.6 1069.68 898.82 872.898 723.697 685.817 618.295 524.994 480.813 760.654 463.5 752.832 1452.82 539.631 435.031 406.583 378.212 290.882 287.756 275.702 275.58 271.435 270.997 1149.78 266.675
threshold=1.0000000180025095e-35 1410.0000000000002 5.5000000000000009 2.5000000000000004 3.5000000000000004 19.500000000000004 33.500000000000007 3.5000000000000004 14.500000000000002 12.500000000000002 2.5000000000000004 12.500000000000002 1.5000000000000002 71.500000000000014 3.5000000000000004 8.5000000000000018 29.500000000000004 2.5000000000000004 1531.1650000000002 157155.31871731012 17317.500000000004 1.5000000000000002 2.5000000000000004 9.5000000000000018 2972.1868460388646 33.500000000000007 3.5000000000000004 6125.5000000000009 15223.500000000002 2.5000000000000004
decision_type=2 2 2 2 2 2 2 2 2 2 2 2 2 2 2 2 2 2 2 2 2 2 2 2 2 2 2 2 2 2
left_child=3 2 7 20 5 -5 10 12 15 13 23 26 -2 14 -8 16 24 25 -19 21 27 -10 -12 -7 -6 -18 29 -1 -29 -4
right_child=1 -3 11 4 8 6 9 -9 19 -11 22 -13 -14 -15 -16 -17 17 18 -20 -21 -22 -23 -24 -25 -26 -27 -28 28 -30 -31
leaf_value=0.065591674804942823 -0.0095163161377837466 0.02928784697358975 -0.0024881059213969214 0.055262967572470123 0.048604167346497022 -0.016356080701640636 -0.029986343783399177 -0.05075040050702511 0.0064837146446836708 0.062045500782187984 -0.007811623647329337 -0.04615302961813459 0.05268496035462248 -0.044471232348822221 0.038507592109872625 0.065085393668841585 0.037565080822226954 0.020011480474930805 0.052537580864082493 0.05749665637882561 -0.056184188365545007 0.046182915287206264 0.049504358724218891 0.045763474600505345 0.06322535466717584 -0.066136258925211355 -0.050820304721108246 -0.063356161836375879 0.059383732167291495 0.089426549681348791
leaf_weight=40517.431213880889 528.55709443800151 29339.661468505859 173.06318351160735 5561.2044104263186 3881.6322398353368 810.24273729138076 916.556277429685 443.78339447267354 1544.9101845901459 335.24872500449419 240.78993616998196 6178.1514567444101 947.06211960315704 943.93956903368235 726.74197202920914 18673.68478281796 79.128236826509237 1447.4556675516069 10714.387386709452 1300.1543574333191 69.709980964660645 980.84294764697552 2743.7463187128305 242.13935465738177 19034.593165397644 336.53287573158741 112.89453978091478 211.24286079406738 1971.8042831420898 145.05781155452132
leaf_count=14593 9060 56510 4439 3847 3480 3774 7553 30484 3211 428 881 388487 3666 10584 2694 6831 150 6465 8296 823 1008 1132 4291 551 7854 2373 7125 1484 1039 2265
internal_value=0.0469017 0.0159316 -0.0300159 0.0572543 0.0528775 0.0334191 0.0159638 0.011641 0.0570786 -0.00707499 0.0326425 -0.0421137 0.0304049 -0.0160315 0.000304821 0.0587088 0.055354 0.0455249 0.0486664 0.033997 0.0644701 0.0219004 0.0448802 -0.00206318 0.0607488 -0.0463949 0.0157862 0.0646671 0.0475068 0.0394234
internal_weight=151152 37868.2 8528.57 113284 70513.9 12520.6 6959.4 1919.4 57993.3 2922.49 4036.92 6609.17 1475.62 2587.24 1643.3 54167.4 35493.7 12577.5 12161.8 3825.91 42770.2 2525.75 2984.54 1052.38 22916.2 415.661 431.016 42700.5 2183.05 318.121
internal_count=595378 502036 445526 93342 75218 34603 30756 43210 40615 21259 9497 402316 12726 20831 10247 35449 28618 17284 14761 5166 18124 4343 5172 4325 11334 2523 13829 17116 2523 6704
is_linear=0
shrinkage=0.05


Tree=25
num_leaves=31
num_cat=0
split_feature=6 18 14 4 13 15 6 4 1 16 14 1 19 16 14 18 14 8 14 19 16 12 16 18 12 14 18 0 0 18
split_gain=18493.3 8440.89 1646.45 1453.76 984.931 868.453 796.705 662.567 599.092 531.801 490.193 481.605 476.963 901.202 1094.09 704.412 471.978 454.261 413.692 450.256 550.729 428.685 396.461 390.973 321.78 320.566 294.951 259.287 255.949 249.101
threshold=1.0000000180025095e-35 1410.0000000000002 8.5000000000000018 2874.1350000000007 59227.055000000008 21004.337767857145 3.5000000000000004 209.57500000000002 5342.5000000000009 12.500000000000002 53.500000000000007 562.50000000000011 4.5000000000000009 17.500000000000004 25.500000000000004 12.500000000000002 35.500000000000007 4.5000000000000009 34.500000000000007 6.5000000000000009 16.500000000000004 14.500000000000002 27.500000000000004 12.500000000000002 24.500000000000004 26.500000000000004 1.5000000000000002 17317.500000000004 6125.5000000000009 6.5000000000000009
decision_type=2 2 2 2 2 2 2 2 2 2 2 2 2 2 2 2 2 2 2 2 2 2 2 2 2 2 2 2 2 2
left_child=3 2 6 5 -5 7 17 25 12 29 -7 -9 13 -6 -15 -16 -10 -2 21 20 -20 27 -12 -24 -14 28 -19 -13 -1 -4
right_child=1 -3 9 4 8 10 -8 11 16 -11 22 18 24 14 15 -17 -18 26 19 -21 -22 -23 23 -25 -26 -27 -28 -29 -30 -31
leaf_value=0.03681905834097312 0.067166814111274398 0.027691381766120168 0.040568648498392972 0.062941324701301177 0.061161567819620011 0.062351094221003468 -0.050716586128149256 0.052248012324716403 0.038223652336441434 -0.046479494526993403 0.057227648947517265 0.04402393784351586 0.0607087698119421 0.056073905429395256 0.0083659564089060227 0.06502363405060313 -0.020335788943175941 -0.022305767480194902 0.057122942988519887 0.060521745754394986 -0.02028861632065657 -0.0034332904179449533 -0.0092462736210362131 0.063413683240423582 0.02714146418609641 -0.023698831650612529 0.027792086433398124 -0.059810883266393992 -0.031231439443115589 -0.052453249611365355
leaf_weight=742.25159757584333 448.01813633739948 29475.924453735352 268.38524594437331 53665.255496025085 5906.5393840353936 7708.8789891004562 452.17165477573872 5610.4869589898735 1617.7426768988371 5741.9343221951276 899.85391999408603 5752.978725200519 16209.314053319395 3362.8621039520949 3401.8782876618207 654.06801050156355 437.04365853965282 479.09340576827526 297.49659145623446 359.56231328472495 1009.0116664655507 545.114680910483 675.17928680405021 255.08366896957159 746.84335665404797 568.02124012261629 759.64932887256145 60.757194338366389 169.78138638287783 98.33901824336499
leaf_count=1309 368 56510 7342 21484 2674 4363 32588 5952 1731 385067 853 5701 7318 1943 10875 424 2081 9324 185 225 5718 1197 5002 330 1361 10431 5412 753 1432 5425
internal_value=0.0454129 0.0151805 -0.0295319 0.0557193 0.0587878 0.0450156 0.00822141 0.0375608 0.0518946 -0.0427512 0.0568285 0.0410097 0.0536674 0.0465888 0.0349866 0.0175027 0.0257683 0.024021 0.0331526 0.0109742 -0.00266173 0.0389635 0.0335658 0.0106775 0.0592303 0.00578698 0.00841635 0.0429388 0.024151 0.0156243
internal_weight=148380 37723.5 8247.59 110656 86001.5 24654.5 2138.93 15115.5 32336.3 6108.66 9539 13635.4 30281.5 13325.3 7418.81 4055.95 2054.79 1686.76 8024.92 1666.07 1306.51 6358.85 1830.12 930.263 16956.2 1480.05 1238.74 5813.74 912.033 366.724
internal_count=595378 502036 445526 93342 49891 43451 47692 32903 28407 397834 10548 19731 24595 15916 13242 11299 3812 15104 13779 6128 5903 7651 6185 5332 8679 13172 14736 6454 2741 12767
is_linear=0
shrinkage=0.05


Tree=26
num_leaves=31
num_cat=0
split_feature=6 18 13 12 19 14 18 12 14 18 14 6 1 4 14 19 14 15 16 0 0 14 0 16 12 15 15 2 2 14
split_gain=17633.4 7672.47 1588.92 1485.7 2249.31 1770.6 970.59 867.737 848.181 964.66 738.724 495.398 483.011 478.275 450.025 693.922 428.368 407.864 397.703 381.62 1004.36 351.401 321.881 312.169 430.069 301.686 299.919 296.033 278.752 273.332
threshold=1.0000000180025095e-35 1410.0000000000002 3.4492085000000006 2.5000000000000004 3.5000000000000004 19.500000000000004 9.5000000000000018 14.500000000000002 85.500000000000014 2.5000000000000004 5.5000000000000009 3.5000000000000004 1696.5000000000002 3047.2050000000004 49.500000000000007 7.5000000000000009 145.50000000000003 157155.31871731012 38.500000000000007 6125.5000000000009 15223.500000000002 9.5000000000000018 17317.500000000004 10.500000000000002 6.5000000000000009 1234.497282214156 10754.954119106702 0.071484000000000006 20345.560000000001 26.500000000000004
decision_type=2 2 2 2 2 2 2 2 2 2 2 2 2 2 2 2 2 2 2 2 2 2 2 2 2 2 2 2 2 2
left_child=3 2 27 19 5 -5 8 13 9 -7 11 25 -11 14 26 18 -8 21 -16 -1 -21 -9 -22 24 -12 -4 -6 -2 -15 -30
right_child=1 -3 10 4 7 6 16 17 -10 12 23 -13 -14 28 15 -17 -18 -19 -20 20 22 -23 -24 -25 -26 -27 -28 -29 29 -31
leaf_value=0.062972426771557857 -0.0077201079550198552 0.026199095345199725 -0.025184852232283714 0.051905655758698835 0.043978134102967942 -0.036412269059695405 0.070476171891504749 0.010423037250128013 -0.038401377710689966 0.04160487749459818 0.0086775881236872739 -0.050677929204082262 0.0056352901562913534 0.061043166814924048 0.035296327384800215 0.06453035729967728 0.010876003327190589 0.05406876562987082 -0.016221804162133067 -0.06320641163347207 0.056306151948907715 0.059420585050569789 -0.055995791010057167 -0.047439124711927481 1.1440854893832124 0.03488062561732054 0.061374722583592438 0.052259820215634779 0.058239099756728842 0.04244450657347397
leaf_weight=38265.682795057073 307.50312995910645 29593.959060668945 308.48492915648967 5332.3548619933426 5595.629152899608 806.12855737656355 927.75524129718542 2059.1950345542282 966.1553913205862 1896.0561837870628 221.92590716294944 401.07890253327787 1838.0863964837044 28004.154694035649 687.41301133297384 812.19107003882527 446.61328431963921 1253.3723393678665 823.23849322460592 207.58616828918457 1879.2869491577148 445.00557385385036 66.048391819000244 5464.8138754172251 0.83716230466961761 648.52696400880814 4446.0224617570639 621.47721648216248 6660.3603518605232 4652.5397792905569
leaf_count=14593 4976 56510 7055 3847 6290 6205 682 3968 9244 5045 10148 30408 8048 11784 1476 405 1532 823 5361 1484 1039 375 1008 384541 19 4842 2238 3537 3093 4802
internal_value=0.0439776 0.0144696 -0.0290586 0.0542354 0.0497041 0.0302797 0.0135203 0.0539832 0.00413856 0.0131909 -0.0371628 -0.00403064 0.0238993 0.0556699 0.0470928 0.0272596 0.0511086 0.0307842 0.00722122 0.06182 0.0413374 0.0191301 0.0524933 -0.0450741 0.0129445 0.015519 0.0516806 0.0324058 0.0583673 0.0517434
internal_weight=145639 37568.6 7974.65 108071 67652.3 12213.1 6880.8 55439.1 5506.43 4540.27 7045.67 1358.09 3734.14 51681.5 12364.5 2322.84 1374.37 3757.57 1510.65 40418.6 2152.92 2504.2 1945.34 5687.58 222.763 957.012 10041.7 928.98 39317.1 11312.9
internal_count=595378 502036 445526 93342 75218 34603 30756 40615 28542 19298 437013 42305 13093 35449 15770 7242 2214 5166 6837 18124 3531 4343 2047 394708 10167 11897 8528 8513 19679 7895
is_linear=0
shrinkage=0.05


Tree=27
num_leaves=31
num_cat=0
split_feature=6 18 14 12 19 14 18 12 16 6 19 16 19 14 18 18 14 8 14 18 16 15 0 0 19 15 0 17 19 17
split_gain=16853 6979.09 1514.42 1497.25 2155.82 1661.8 977.819 846.949 773.429 695.59 652.473 499.167 486.829 748.126 1587.05 512.188 415.096 407.397 406.87 633.165 400.813 384.334 363.935 932.36 335.353 314.565 298.501 287.891 258.222 251.254
threshold=1.0000000180025095e-35 1410.0000000000002 8.5000000000000018 2.5000000000000004 3.5000000000000004 18.500000000000004 9.5000000000000018 14.500000000000002 33.500000000000007 3.5000000000000004 2.5000000000000004 12.500000000000002 8.5000000000000018 26.500000000000004 2.5000000000000004 11.500000000000002 145.50000000000003 4.5000000000000009 71.500000000000014 3.5000000000000004 31.500000000000004 157155.31871731012 6125.5000000000009 15223.500000000002 16.500000000000004 4165.4199632653063 17317.500000000004 3364.5894166666671 2.5000000000000004 15106.788776939657
decision_type=2 2 2 2 2 2 2 2 2 2 2 2 2 2 2 2 2 2 2 2 2 2 2 2 2 2 2 2 2 2
left_child=3 2 9 22 5 -5 8 12 10 17 -7 -4 13 25 20 -16 -8 -2 19 -10 -15 24 -1 -24 -9 -6 -25 -14 -19 -12
right_child=1 -3 11 4 7 6 16 21 18 -11 29 -13 27 14 15 -17 -18 28 -20 -21 -22 -23 23 26 -26 -27 -28 -29 -30 -31
leaf_value=0.061737115054909732 0.063116131130990849 0.024801532188447984 0.014036536786242244 0.050866484506809674 0.044799114417125752 -0.018397733010600784 0.068512406545178331 0.05011621450887796 -0.030844833764807657 -0.050648995152610732 0.046205136181442959 -0.046016433847099129 0.043811362642957798 0.042035383839602668 0.039764373005038392 0.065071702225685188 0.01032896260214904 -0.029562375526114126 -0.046987466820791496 0.031974698551783899 -0.065130443638291555 0.052395774792132067 -0.062087555702595977 0.054861365858612114 0.0077014623725071675 0.0599181659861482 -0.055692001478921782 0.063462746772074932 0.021374161854653233 0.012064510336396628
leaf_weight=37109.202048202045 442.91347309947014 29695.764320373535 370.41375944297761 5089.1062163896859 4387.1651054732502 811.58817865513265 976.7459985986352 620.10300874710083 911.38283535279334 410.34735755622387 1469.6968804597855 5257.1921341689304 2126.0416199788451 109.82027045078576 9841.9775235503912 2508.9664852805436 446.74975350499153 344.13339683413506 786.83932942897081 716.42312264442444 424.5527889598161 1229.3382840752602 200.92998504638672 1833.5091133117676 1875.5511557608843 15940.982930183411 63.161211967468262 15105.346394002438 898.30055762827396 850.91237246990204
leaf_count=14593 368 56510 12767 3678 3797 3804 700 557 7606 32588 2614 385067 1599 154 14142 1053 1532 5837 9761 2692 2749 823 1484 1039 3786 6723 1008 5232 8899 2216
internal_value=0.0426169 0.0137893 -0.0285525 0.0528478 0.0482634 0.0291444 0.0132849 0.0525198 0.0037979 0.00772933 0.0201909 -0.0420637 0.0542187 0.0506808 0.0412553 0.0449053 0.0502521 0.0219433 -0.0174666 -0.00319696 -0.0431065 0.0295125 0.0605918 0.0403299 0.0182404 0.0566552 0.0511798 0.0610381 0.00726559 0.0336866
internal_weight=142855 37419.1 7723.3 105436 66229.3 12059.4 6970.34 54169.8 5546.84 2095.69 3132.2 5627.61 50444.9 33213.5 12885.3 12350.9 1423.5 1685.35 2414.65 1627.81 534.373 3724.99 39206.8 2097.6 2495.65 20328.1 1896.67 17231.4 1242.43 2320.61
internal_count=595378 502036 445526 93342 75218 34603 30925 40615 28693 47692 8634 397834 35449 28618 18098 15195 2232 15104 20059 10298 2903 5166 18124 3531 4343 10520 2047 6831 14736 4830
is_linear=0
shrinkage=0.05


Tree=28
num_leaves=31
num_cat=0
split_feature=6 18 12 19 14 13 18 12 14 18 14 4 8 14 19 6 14 16 15 0 0 11 15 16 2 0 19 14 13 6
split_gain=16118.6 6352.77 1505.95 2060.96 1555.88 1446.27 900.419 826.082 730.184 910.238 699.169 509.664 467.263 441.973 655.226 436.732 393.101 370.21 362.116 347.751 866.011 323.251 298.79 297.202 293.844 277.023 273.147 436.031 270.536 262.127
